{"learner":{"attributes":{},"feature_names":[],"feature_types":[],"gradient_booster":{"model":{"cats":{"enc":[],"feature_segments":[],"sorted_idx":[]},"gbtree_model_param":{"num_parallel_tree":"1","num_trees":"700"},"iteration_indptr":[0,1,2,3,4,5,6,7,8,9,10,11,12,13,14,15,16,17,18,19,20,21,22,23,24,25,26,27,28,29,30,31,32,33,34,35,36,37,38,39,40,41,42,43,44,45,46,47,48,49,50,51,52,53,54,55,56,57,58,59,60,61,62,63,64,65,66,67,68,69,70,71,72,73,74,75,76,77,78,79,80,81,82,83,84,85,86,87,88,89,90,91,92,93,94,95,96,97,98,99,100,101,102,103,104,105,106,107,108,109,110,111,112,113,114,115,116,117,118,119,120,121,122,123,124,125,126,127,128,129,130,131,132,133,134,135,136,137,138,139,140,141,142,143,144,145,146,147,148,149,150,151,152,153,154,155,156,157,158,159,160,161,162,163,164,165,166,167,168,169,170,171,172,173,174,175,176,177,178,179,180,181,182,183,184,185,186,187,188,189,190,191,192,193,194,195,196,197,198,199,200,201,202,203,204,205,206,207,208,209,210,211,212,213,214,215,216,217,218,219,220,221,222,223,224,225,226,227,228,229,230,231,232,233,234,235,236,237,238,239,240,241,242,243,244,245,246,247,248,249,250,251,252,253,254,255,256,257,258,259,260,261,262,263,264,265,266,267,268,269,270,271,272,273,274,275,276,277,278,279,280,281,282,283,284,285,286,287,288,289,290,291,292,293,294,295,296,297,298,299,300,301,302,303,304,305,306,307,308,309,310,311,312,313,314,315,316,317,318,319,320,321,322,323,324,325,326,327,328,329,330,331,332,333,334,335,336,337,338,339,340,341,342,343,344,345,346,347,348,349,350,351,352,353,354,355,356,357,358,359,360,361,362,363,364,365,366,367,368,369,370,371,372,373,374,375,376,377,378,379,380,381,382,383,384,385,386,387,388,389,390,391,392,393,394,395,396,397,398,399,400,401,402,403,404,405,406,407,408,409,410,411,412,413,414,415,416,417,418,419,420,421,422,423,424,425,426,427,428,429,430,431,432,433,434,435,436,437,438,439,440,441,442,443,444,445,446,447,448,449,450,451,452,453,454,455,456,457,458,459,460,461,462,463,464,465,466,467,468,469,470,471,472,473,474,475,476,477,478,479,480,481,482,483,484,485,486,487,488,489,490,491,492,493,494,495,496,497,498,499,500,501,502,503,504,505,506,507,508,509,510,511,512,513,514,515,516,517,518,519,520,521,522,523,524,525,526,527,528,529,530,531,532,533,534,535,536,537,538,539,540,541,542,543,544,545,546,547,548,549,550,551,552,553,554,555,556,557,558,559,560,561,562,563,564,565,566,567,568,569,570,571,572,573,574,575,576,577,578,579,580,581,582,583,584,585,586,587,588,589,590,591,592,593,594,595,596,597,598,599,600,601,602,603,604,605,606,607,608,609,610,611,612,613,614,615,616,617,618,619,620,621,622,623,624,625,626,627,628,629,630,631,632,633,634,635,636,637,638,639,640,641,642,643,644,645,646,647,648,649,650,651,652,653,654,655,656,657,658,659,660,661,662,663,664,665,666,667,668,669,670,671,672,673,674,675,676,677,678,679,680,681,682,683,684,685,686,687,688,689,690,691,692,693,694,695,696,697,698,699,700],"tree_info":[0,0,0,0,0,0,0,0,0,0,0,0,0,0,0,0,0,0,0,0,0,0,0,0,0,0,0,0,0,0,0,0,0,0,0,0,0,0,0,0,0,0,0,0,0,0,0,0,0,0,0,0,0,0,0,0,0,0,0,0,0,0,0,0,0,0,0,0,0,0,0,0,0,0,0,0,0,0,0,0,0,0,0,0,0,0,0,0,0,0,0,0,0,0,0,0,0,0,0,0,0,0,0,0,0,0,0,0,0,0,0,0,0,0,0,0,0,0,0,0,0,0,0,0,0,0,0,0,0,0,0,0,0,0,0,0,0,0,0,0,0,0,0,0,0,0,0,0,0,0,0,0,0,0,0,0,0,0,0,0,0,0,0,0,0,0,0,0,0,0,0,0,0,0,0,0,0,0,0,0,0,0,0,0,0,0,0,0,0,0,0,0,0,0,0,0,0,0,0,0,0,0,0,0,0,0,0,0,0,0,0,0,0,0,0,0,0,0,0,0,0,0,0,0,0,0,0,0,0,0,0,0,0,0,0,0,0,0,0,0,0,0,0,0,0,0,0,0,0,0,0,0,0,0,0,0,0,0,0,0,0,0,0,0,0,0,0,0,0,0,0,0,0,0,0,0,0,0,0,0,0,0,0,0,0,0,0,0,0,0,0,0,0,0,0,0,0,0,0,0,0,0,0,0,0,0,0,0,0,0,0,0,0,0,0,0,0,0,0,0,0,0,0,0,0,0,0,0,0,0,0,0,0,0,0,0,0,0,0,0,0,0,0,0,0,0,0,0,0,0,0,0,0,0,0,0,0,0,0,0,0,0,0,0,0,0,0,0,0,0,0,0,0,0,0,0,0,0,0,0,0,0,0,0,0,0,0,0,0,0,0,0,0,0,0,0,0,0,0,0,0,0,0,0,0,0,0,0,0,0,0,0,0,0,0,0,0,0,0,0,0,0,0,0,0,0,0,0,0,0,0,0,0,0,0,0,0,0,0,0,0,0,0,0,0,0,0,0,0,0,0,0,0,0,0,0,0,0,0,0,0,0,0,0,0,0,0,0,0,0,0,0,0,0,0,0,0,0,0,0,0,0,0,0,0,0,0,0,0,0,0,0,0,0,0,0,0,0,0,0,0,0,0,0,0,0,0,0,0,0,0,0,0,0,0,0,0,0,0,0,0,0,0,0,0,0,0,0,0,0,0,0,0,0,0,0,0,0,0,0,0,0,0,0,0,0,0,0,0,0,0,0,0,0,0,0,0,0,0,0,0,0,0,0,0,0,0,0,0,0,0,0,0,0,0,0,0,0,0,0,0,0,0,0,0,0,0,0,0,0,0,0,0,0,0,0,0,0,0,0,0,0,0,0,0,0,0,0,0,0,0,0,0,0,0,0,0,0,0,0,0,0,0,0,0,0,0,0,0,0,0,0,0,0,0,0,0,0,0,0,0,0,0,0,0,0,0,0,0,0,0,0,0,0,0,0,0,0,0,0,0,0,0,0,0,0,0,0,0,0,0,0,0,0,0,0,0,0,0,0,0,0,0,0,0,0,0,0,0,0,0,0,0,0,0,0,0,0,0,0],"trees":[{"base_weights":[1.9041428E-3,-8.43688E-1,5.1495814E0,-1.0277747E0,-2.4804118E-1,5.967634E-1,5.4363036E0,-8.506226E-1,-1.1404798E0,1.5863712E0,-7.824763E-1,-7.312658E-1,1.9845806E0,3.3464234E0,5.626582E0,-1.0521371E0,4.5203054E-1,-1.1795026E0,-1.0116098E0,-9.7310853E-1,3.9119503E0,-8.3362037E-1,2.012885E-1,-1.0557792E0,-1.6995536E-1,3.1481555E0,-5.628695E-1,1.2154753E0,4.5854964E0,5.697871E0,3.8012676E0,-5.4477748E-2,-1.3751782E-2,-3.0293483E-2,7.593488E-2,-5.9766848E-2,-5.7166457E-2,-3.6786415E-2,-5.9521444E-2,-5.0547283E-2,4.7956742E-2,2.9159257E-1,1.1997916E-1,1.6280337E-3,-5.4719407E-2,-5.800993E-2,-2.0303382E-2,3.513675E-2,-5.659269E-2,3.81503E-2,2.011863E-1,1.303143E-2,-5.6581534E-2,2.805532E-1,2.3167206E-2,2.591311E-1,-4.7058824E-2,2.8696212E-1,2.0032106E-1,2.9585028E-1,2.8790796E-2],"categories":[],"categories_nodes":[],"categories_segments":[],"categories_sizes":[],"default_left":[0,0,0,0,0,0,0,0,0,0,0,0,0,0,0,0,0,0,0,0,0,0,0,0,0,0,0,0,0,0,0,0,0,0,0,0,0,0,0,0,0,0,0,0,0,0,0,0,0,0,0,0,0,0,0,0,0,0,0,0,0],"id":0,"left_children":[1,3,5,7,9,11,13,15,17,19,21,23,25,27,29,31,33,35,37,39,41,43,-1,45,47,49,51,53,55,57,59,-1,-1,-1,-1,-1,-1,-1,-1,-1,-1,-1,-1,-1,-1,-1,-1,-1,-1,-1,-1,-1,-1,-1,-1,-1,-1,-1,-1,-1,-1],"loss_changes":[2.3205108E5,5.0195645E3,9.809125E3,6.9541016E2,1.060325E4,8.291695E2,2.7715469E3,3.57383E3,1.0398047E2,1.453296E4,2.0647227E3,4.0958794E1,6.562905E2,1.558603E3,7.9540625E2,3.414629E2,2.0609553E3,5.484375E0,2.4315088E2,8.700098E1,3.6814355E3,1.8728438E3,0E0,8.106155E0,7.5069756E1,3.07448E2,3.4032707E1,7.25249E2,1.2518965E3,3.8539062E2,1.6954231E3,0E0,0E0,0E0,0E0,0E0,0E0,0E0,0E0,0E0,0E0,0E0,0E0,0E0,0E0,0E0,0E0,0E0,0E0,0E0,0E0,0E0,0E0,0E0,0E0,0E0,0E0,0E0,0E0,0E0,0E0],"parents":[2147483647,0,0,1,1,2,2,3,3,4,4,5,5,6,6,7,7,8,8,9,9,10,10,11,11,12,12,13,13,14,14,15,15,16,16,17,17,18,18,19,19,20,20,21,21,23,23,24,24,25,25,26,26,27,27,28,28,29,29,30,30],"right_children":[2,4,6,8,10,12,14,16,18,20,22,24,26,28,30,32,34,36,38,40,42,44,-1,46,48,50,52,54,56,58,60,-1,-1,-1,-1,-1,-1,-1,-1,-1,-1,-1,-1,-1,-1,-1,-1,-1,-1,-1,-1,-1,-1,-1,-1,-1,-1,-1,-1,-1,-1],"split_conditions":[1.2631052E0,3.995493E-2,5.5376887E0,3.2176752E0,4.6489677E-1,1.4433274E0,-7.053473E-1,1.11964434E-1,2.4068604E0,7.069951E-2,1.2050041E0,5.322278E0,5.2023597E0,6.606217E0,8.660254E-1,1.4439102E0,-7.053473E-1,9.356788E-2,3.6162655E0,6.724345E-2,2.2597072E-1,-2.8177513E-2,2.012885E-1,3.995493E-2,4.5626354E0,-7.053473E-1,9.356788E-2,3.317792E0,3.0741901E0,3.0741901E0,3.7888818E0,-5.4477748E-2,-1.3751782E-2,-3.0293483E-2,7.593488E-2,-5.9766848E-2,-5.7166457E-2,-3.6786415E-2,-5.9521444E-2,-5.0547283E-2,4.7956742E-2,2.9159257E-1,1.1997916E-1,1.6280337E-3,-5.4719407E-2,-5.800993E-2,-2.0303382E-2,3.513675E-2,-5.659269E-2,3.81503E-2,2.011863E-1,1.303143E-2,-5.6581534E-2,2.805532E-1,2.3167206E-2,2.591311E-1,-4.7058824E-2,2.8696212E-1,2.0032106E-1,2.9585028E-1,2.8790796E-2],"split_indices":[2,5,0,0,1,2,3,2,1,2,2,0,1,0,3,1,3,7,1,2,1,3,0,5,1,3,7,1,2,2,1,0,0,0,0,0,0,0,0,0,0,0,0,0,0,0,0,0,0,0,0,0,0,0,0,0,0,0,0,0,0],"split_type":[0,0,0,0,0,0,0,0,0,0,0,0,0,0,0,0,0,0,0,0,0,0,0,0,0,0,0,0,0,0,0,0,0,0,0,0,0,0,0,0,0,0,0,0,0,0,0,0,0,0,0,0,0,0,0,0,0,0,0,0,0],"sum_hessian":[5.3305832E4,4.5786246E4,7.519583E3,3.497486E4,1.0811389E4,4.459722E2,7.073611E3,1.3607638E4,2.136722E4,2.4380554E3,8.373333E3,2.2819443E2,2.1777777E2,5.936111E2,6.4799995E3,1.1785277E4,1.822361E3,1.6385416E4,4.981805E3,1.1611111E3,1.2769443E3,8.286944E3,8.6388885E1,1.4291666E2,8.527777E1,1.4930554E2,6.847222E1,2.198611E2,3.7374997E2,6.232083E3,2.4791666E2,1.1242499E4,5.427778E2,9.1513885E2,9.0722217E2,1.1342499E4,5.0429165E3,1.9643054E3,3.0174998E3,1.1399999E3,2.111111E1,5.5999994E2,7.169444E2,1.9174999E3,6.369444E3,1.2111111E2,2.1805553E1,4.472222E1,4.0555553E1,4.1249996E1,1.0805555E2,2.8055553E1,4.0416664E1,3.0138887E1,1.8972221E2,3.3749997E2,3.6249996E1,6.078333E3,1.5374998E2,1.486111E2,9.930555E1],"tree_param":{"num_deleted":"0","num_feature":"12","num_nodes":"61","size_leaf_vector":"1"}},{"base_weights":[-2.9952636E-3,-8.2319957E-1,4.1385026E0,-1.068401E0,-1.1551954E-2,2.3983574E0,4.5501747E0,-8.926057E-1,-1.154325E0,1.0328367E0,-7.9759836E-1,-7.273194E-1,3.086427E0,-1.7918006E-2,4.583367E0,-1.058962E0,-2.8927004E-1,-1.1594837E0,-1.5352038E-1,-2.2583568E-1,3.4736555E0,-8.62341E-1,3.1471012E0,-5.619516E-2,3.6942273E-2,2.3474935E-1,2.610404E0,-2.3119148E-2,3.0124698E-2,2.2804136E0,4.6154137E0,-5.703337E-2,-4.1260455E-2,-4.0004577E-2,7.332294E-2,-5.9187945E-2,-5.638497E-2,1.16242886E-1,-5.7846118E-2,1.8164806E-2,-5.5180546E-2,2.3874497E-1,1.4163196E-1,-5.43185E-2,-9.287094E-3,2.2467326E-1,-3.1465996E-2,3.2312572E-2,-5.6203257E-2,5.6556817E-3,1.8021841E-1,2.3822784E-1,6.686875E-2,1.6112356E-1,2.3131E-1],"categories":[],"categories_nodes":[],"categories_segments":[],"categories_sizes":[],"default_left":[0,0,0,0,0,0,0,0,0,0,0,0,0,0,0,0,0,0,0,0,0,0,0,0,0,0,0,0,0,0,0,0,0,0,0,0,0,0,0,0,0,0,0,0,0,0,0,0,0,0,0,0,0,0,0],"id":1,"left_children":[1,3,5,7,9,11,13,15,17,19,21,23,25,27,29,31,33,35,37,39,41,43,45,-1,47,-1,49,-1,-1,51,53,-1,-1,-1,-1,-1,-1,-1,-1,-1,-1,-1,-1,-1,-1,-1,-1,-1,-1,-1,-1,-1,-1,-1,-1],"loss_changes":[1.8130944E5,8.866154E3,6.2954375E3,5.137422E2,8.48938E3,3.6456572E3,1.0839531E3,1.1272422E3,1.175957E2,1.3645506E4,1.511248E3,9.362834E1,1.0343662E3,1.5194901E1,4.9814062E2,1.6543945E2,2.1845962E3,1.3808594E1,3.0473267E2,1.5171307E3,1.2295547E3,8.791792E2,4.935891E2,0E0,7.64353E1,0E0,2.6669746E3,0E0,0E0,2.2165027E2,7.1171875E1,0E0,0E0,0E0,0E0,0E0,0E0,0E0,0E0,0E0,0E0,0E0,0E0,0E0,0E0,0E0,0E0,0E0,0E0,0E0,0E0,0E0,0E0,0E0,0E0],"parents":[2147483647,0,0,1,1,2,2,3,3,4,4,5,5,6,6,7,7,8,8,9,9,10,10,11,11,12,12,13,13,14,14,15,15,16,16,17,17,18,18,19,19,20,20,21,21,22,22,24,24,26,26,29,29,30,30],"right_children":[2,4,6,8,10,12,14,16,18,20,22,24,26,28,30,32,34,36,38,40,42,44,46,-1,48,-1,50,-1,-1,52,54,-1,-1,-1,-1,-1,-1,-1,-1,-1,-1,-1,-1,-1,-1,-1,-1,-1,-1,-1,-1,-1,-1,-1,-1],"split_conditions":[1.2631052E0,7.09077E-1,5.078482E-1,6.650641E-1,3.24688E0,5.595566E0,5.3631682E0,5.006912E-1,1.2050041E0,9.6090145E-2,1.2050041E0,1.4981443E0,3.7888818E0,1.3674526E0,-7.053473E-1,1.15079716E-1,5.078482E-1,1.4439102E0,2.6223211E0,9.356788E-2,3.0142945E-1,2.3006577E0,2.6223211E0,-5.619516E-2,5.566372E0,2.3474935E-1,6.5615387E0,-2.3119148E-2,3.0124698E-2,7.0710677E-1,5.4704204E0,-5.703337E-2,-4.1260455E-2,-4.0004577E-2,7.332294E-2,-5.9187945E-2,-5.638497E-2,1.16242886E-1,-5.7846118E-2,1.8164806E-2,-5.5180546E-2,2.3874497E-1,1.4163196E-1,-5.43185E-2,-9.287094E-3,2.2467326E-1,-3.1465996E-2,3.2312572E-2,-5.6203257E-2,5.6556817E-3,1.8021841E-1,2.3822784E-1,6.686875E-2,1.6112356E-1,2.3131E-1],"split_indices":[2,4,4,1,0,0,0,3,2,2,2,2,1,2,3,2,4,1,1,7,1,1,1,0,1,0,0,0,0,4,0,0,0,0,0,0,0,0,0,0,0,0,0,0,0,0,0,0,0,0,0,0,0,0,0],"split_type":[0,0,0,0,0,0,0,0,0,0,0,0,0,0,0,0,0,0,0,0,0,0,0,0,0,0,0,0,0,0,0,0,0,0,0,0,0,0,0,0,0,0,0,0,0,0,0,0,0,0,0,0,0,0,0],"sum_hessian":[5.3371855E4,4.455055E4,8.821306E3,3.421334E4,1.033721E4,1.6904802E3,7.130825E3,1.1241836E4,2.2971504E4,4.4385806E3,5.8986294E3,3.0484186E2,1.3856384E3,5.133715E1,7.079488E3,8.810265E3,2.4315713E3,2.2852893E4,1.1861128E2,2.9295112E3,1.5090693E3,5.8050435E3,9.358609E1,2.0050877E2,1.043331E2,3.121285E2,1.0735099E3,3.0676071E1,2.066108E1,9.9357834E1,6.98013E3,6.5210225E3,2.2892424E3,1.8846222E3,5.4694916E2,1.2906977E4,9.945917E3,3.32795E1,8.533179E1,1.7533363E3,1.1761749E3,4.935334E2,1.01553595E3,4.3595884E3,1.445455E3,6.880758E1,2.4778515E1,6.928761E1,3.5045486E1,3.0640686E2,7.67103E2,2.4963728E1,7.4394104E1,5.8597057E1,6.9215327E3],"tree_param":{"num_deleted":"0","num_feature":"12","num_nodes":"55","size_leaf_vector":"1"}},{"base_weights":[-6.909296E-3,-8.035399E-1,3.4059794E0,-1.0570117E0,6.0350047E-3,1.9050606E0,3.7639894E0,-1.0969125E0,-6.4594156E-1,9.370246E-1,-7.407192E-1,9.709128E-1,3.0859652E0,3.5606823E0,3.9056494E0,-1.0079615E0,-1.1521056E0,1.7562671E0,-1.0861369E0,-9.473376E-1,1.7831343E0,-1.0719838E0,2.0355494E-1,1.9578473E-1,-5.468612E-1,3.4385753E0,-3.3671787E-1,3.9126682E0,1.4505519E0,1.965134E-1,3.2733316E0,-5.846218E-2,-4.220422E-2,-5.7855614E-2,-3.801327E-2,-5.8897853E-2,1.8263447E-1,6.415481E-3,-5.5565327E-2,-5.0363254E-2,-1.5770756E-2,1.17943764E-1,-6.852248E-3,-5.7968855E-2,-4.0842026E-2,4.7945797E-2,-5.921444E-2,3.5599448E-2,-4.79677E-2,1.4409445E-1,1.844253E-1,-5.2543312E-2,3.286962E-2,1.998566E-1,1.7509964E-1,-5.998362E-2,1.5511756E-1,9.261628E-2,1.827173E-1],"categories":[],"categories_nodes":[],"categories_segments":[],"categories_sizes":[],"default_left":[0,0,0,0,0,0,0,0,0,0,0,0,0,0,0,0,0,0,0,0,0,0,0,0,0,0,0,0,0,0,0,0,0,0,0,0,0,0,0,0,0,0,0,0,0,0,0,0,0,0,0,0,0,0,0,0,0,0,0],"id":2,"left_children":[1,3,5,7,9,11,13,15,17,19,21,23,25,27,29,31,33,35,37,39,41,43,45,-1,47,49,51,53,55,-1,57,-1,-1,-1,-1,-1,-1,-1,-1,-1,-1,-1,-1,-1,-1,-1,-1,-1,-1,-1,-1,-1,-1,-1,-1,-1,-1,-1,-1],"loss_changes":[1.4443897E5,8.839205E3,5.3851562E3,5.357422E2,7.1425674E3,2.1326948E3,2.0217188E2,1.433711E2,3.0788188E3,7.294958E3,1.7840547E3,4.8627085E3,1.0368643E3,2.4790234E3,4.4773438E1,3.0009473E2,3.344336E1,2.5193691E3,7.594995E1,5.240979E1,3.4917275E3,9.12334E1,1.5555376E3,0E0,3.7468713E2,8.346289E1,5.953271E1,6.799219E1,2.1238474E3,0E0,8.719031E1,0E0,0E0,0E0,0E0,0E0,0E0,0E0,0E0,0E0,0E0,0E0,0E0,0E0,0E0,0E0,0E0,0E0,0E0,0E0,0E0,0E0,0E0,0E0,0E0,0E0,0E0,0E0,0E0],"parents":[2147483647,0,0,1,1,2,2,3,3,4,4,5,5,6,6,7,7,8,8,9,9,10,10,11,11,12,12,13,13,14,14,15,15,16,16,17,17,18,18,19,19,20,20,21,21,22,22,24,24,25,25,26,26,27,27,28,28,30,30],"right_children":[2,4,6,8,10,12,14,16,18,20,22,24,26,28,30,32,34,36,38,40,42,44,46,-1,48,50,52,54,56,-1,58,-1,-1,-1,-1,-1,-1,-1,-1,-1,-1,-1,-1,-1,-1,-1,-1,-1,-1,-1,-1,-1,-1,-1,-1,-1,-1,-1,-1],"split_conditions":[2.7993467E0,7.09077E-1,5.078482E-1,3.995493E-2,-3.0955625E-1,8.96964E0,8.96964E0,-3.1962976E-1,3.3619457E-1,-5.570379E-1,2.3512092E0,3.7888818E0,1.5058582E1,1.3703141E1,1.5058582E1,-5.484618E-1,2.3819766E0,-5.7065076E-1,3.8196555E-1,-5.639804E-1,7.4749655E-1,1.4439102E0,5.566372E0,1.9578473E-1,1.3703141E1,9.356788E-2,5.6160223E-1,3.7888818E0,6.736319E0,1.965134E-1,5.6160223E-1,-5.846218E-2,-4.220422E-2,-5.7855614E-2,-3.801327E-2,-5.8897853E-2,1.8263447E-1,6.415481E-3,-5.5565327E-2,-5.0363254E-2,-1.5770756E-2,1.17943764E-1,-6.852248E-3,-5.7968855E-2,-4.0842026E-2,4.7945797E-2,-5.921444E-2,3.5599448E-2,-4.79677E-2,1.4409445E-1,1.844253E-1,-5.2543312E-2,3.286962E-2,1.998566E-1,1.7509964E-1,-5.998362E-2,1.5511756E-1,9.261628E-2,1.827173E-1],"split_indices":[11,4,4,5,11,11,11,11,1,11,1,1,11,1,11,11,11,11,1,11,1,1,1,0,1,7,6,1,11,0,6,0,0,0,0,0,0,0,0,0,0,0,0,0,0,0,0,0,0,0,0,0,0,0,0,0,0,0,0],"split_type":[0,0,0,0,0,0,0,0,0,0,0,0,0,0,0,0,0,0,0,0,0,0,0,0,0,0,0,0,0,0,0,0,0,0,0,0,0,0,0,0,0,0,0,0,0,0,0,0,0,0,0,0,0,0,0,0,0,0,0],"sum_hessian":[5.3122242E4,4.307048E4,1.0051762E4,3.28008E4,1.0269679E4,1.9385667E3,8.113195E3,2.9894518E4,2.9062832E3,4.571047E3,5.698632E3,1.0846378E3,8.5392883E2,3.3545828E3,4.7586123E3,1.1464907E4,1.8429611E4,4.489863E2,2.4572969E3,1.4162037E3,3.1548428E3,4.218857E3,1.4797751E3,3.6793698E2,7.1670087E2,7.742964E2,7.963244E1,2.873342E3,4.812407E2,4.569483E3,1.8912923E2,5.770484E3,5.694424E3,1.8191984E4,2.3762575E2,1.7645767E2,2.7252863E2,4.9323944E1,2.4079731E3,1.2917257E3,1.2447804E2,2.4269553E3,7.2788763E2,3.1357373E3,1.0831195E3,9.588699E2,5.209053E2,1.7622653E2,5.404743E2,2.4830113E2,5.2599524E2,4.6567837E1,3.3064598E1,2.3676943E3,5.056478E2,1.848705E2,2.963702E2,4.2745117E1,1.4638411E2],"tree_param":{"num_deleted":"0","num_feature":"12","num_nodes":"59","size_leaf_vector":"1"}},{"base_weights":[-9.810827E-3,-8.0172825E-1,3.0247948E0,-1.0447356E0,-4.40326E-2,-2.5950512E-1,3.159921E0,-1.0869604E0,-6.2266463E-1,8.7310076E-1,-8.3614707E-1,-9.53538E-1,1.3480142E0,2.2357676E0,3.3403292E0,-9.920188E-1,-1.1462517E0,4.6853518E-1,-1.134026E0,-3.2540163E-1,2.5798068E0,-1.0575517E0,-4.0371615E-1,-5.4830827E-2,-7.074181E-2,-4.9292877E-1,2.4590518E0,2.360212E0,-3.1047973E-1,1.9051826E0,3.3577995E0,-5.5032838E-2,-1.8339703E-2,-5.772647E-2,-5.5170383E-2,-4.7933765E-2,1.6144519E-1,-5.78002E-2,-7.5953626E-3,9.984639E-3,-5.64569E-2,9.840601E-2,1.7139085E-1,-5.3979787E-3,-5.718666E-2,-4.4618614E-2,6.4531356E-2,1.5803583E-2,-2.5278836E-2,-4.4769775E-2,-7.482312E-3,1.4193769E-1,9.543793E-2,8.542328E-2,1.5275513E-1,-5.0168183E-2,2.6211042E-2,1.7436628E-1,5.9670467E-2,1.683221E-1,1.4774267E-1],"categories":[],"categories_nodes":[],"categories_segments":[],"categories_sizes":[],"default_left":[0,0,0,0,0,0,0,0,0,0,0,0,0,0,0,0,0,0,0,0,0,0,0,0,0,0,0,0,0,0,0,0,0,0,0,0,0,0,0,0,0,0,0,0,0,0,0,0,0,0,0,0,0,0,0,0,0,0,0,0,0],"id":3,"left_children":[1,3,5,7,9,11,13,15,17,19,21,23,25,27,29,31,33,35,37,39,41,43,45,-1,47,49,51,53,55,57,59,-1,-1,-1,-1,-1,-1,-1,-1,-1,-1,-1,-1,-1,-1,-1,-1,-1,-1,-1,-1,-1,-1,-1,-1,-1,-1,-1,-1,-1,-1],"loss_changes":[1.2662221E5,7.6932344E3,4.8423906E3,5.6164453E2,7.3749785E3,4.8502753E2,1.7285156E3,1.5853516E2,1.6101366E3,9.625559E3,5.1995996E2,3.760196E1,2.7148367E2,5.4661035E2,2.0417188E2,7.5058105E2,2.5957031E0,3.6359575E3,4.1387695E1,1.1679565E3,9.9069824E2,2.938037E2,1.5326675E3,0E0,7.976787E0,6.231594E0,3.9730835E0,7.28833E2,4.8482033E1,1.1355405E2,7.0625E0,0E0,0E0,0E0,0E0,0E0,0E0,0E0,0E0,0E0,0E0,0E0,0E0,0E0,0E0,0E0,0E0,0E0,0E0,0E0,0E0,0E0,0E0,0E0,0E0,0E0,0E0,0E0,0E0,0E0,0E0],"parents":[2147483647,0,0,1,1,2,2,3,3,4,4,5,5,6,6,7,7,8,8,9,9,10,10,11,11,12,12,13,13,14,14,15,15,16,16,17,17,18,18,19,19,20,20,21,21,22,22,24,24,25,25,26,26,27,27,28,28,29,29,30,30],"right_children":[2,4,6,8,10,12,14,16,18,20,22,24,26,28,30,32,34,36,38,40,42,44,46,-1,48,50,52,54,56,58,60,-1,-1,-1,-1,-1,-1,-1,-1,-1,-1,-1,-1,-1,-1,-1,-1,-1,-1,-1,-1,-1,-1,-1,-1,-1,-1,-1,-1,-1,-1],"split_conditions":[1.2050041E0,7.09077E-1,5.4704204E0,3.995493E-2,3.24688E0,7.09077E-1,5.078482E-1,3.2176752E0,3.2176752E0,8.548565E-2,9.356788E-2,1.4981443E0,1.3674526E0,7.0515523E0,-7.053473E-1,1.0266277E-1,7.4644786E-1,6.724345E-2,5.4704204E0,9.356788E-2,-2.5476894E-1,1.8654689E-1,7.00264E-1,-5.4830827E-2,-7.2398037E-1,8.664093E-1,-4.882092E-1,6.606217E0,5.6160223E-1,7.0710677E-1,1.5058582E1,-5.5032838E-2,-1.8339703E-2,-5.772647E-2,-5.5170383E-2,-4.7933765E-2,1.6144519E-1,-5.78002E-2,-7.5953626E-3,9.984639E-3,-5.64569E-2,9.840601E-2,1.7139085E-1,-5.3979787E-3,-5.718666E-2,-4.4618614E-2,6.4531356E-2,1.5803583E-2,-2.5278836E-2,-4.4769775E-2,-7.482312E-3,1.4193769E-1,9.543793E-2,8.542328E-2,1.5275513E-1,-5.0168183E-2,2.6211042E-2,1.7436628E-1,5.9670467E-2,1.683221E-1,1.4774267E-1],"split_indices":[2,4,0,5,0,4,4,0,0,2,7,2,2,0,3,2,2,2,0,7,3,2,2,0,3,4,3,0,6,4,11,0,0,0,0,0,0,0,0,0,0,0,0,0,0,0,0,0,0,0,0,0,0,0,0,0,0,0,0,0,0],"split_type":[0,0,0,0,0,0,0,0,0,0,0,0,0,0,0,0,0,0,0,0,0,0,0,0,0,0,0,0,0,0,0,0,0,0,0,0,0,0,0,0,0,0,0,0,0,0,0,0,0,0,0,0,0,0,0,0,0,0,0,0,0],"sum_hessian":[5.2686383E4,4.178398E4,1.0902403E4,3.1636227E4,1.0147752E4,4.306131E2,1.0471791E4,2.8755166E4,2.8810618E3,4.702372E3,5.44538E3,3.015473E2,1.290658E2,1.7151884E3,8.756603E3,1.1071139E4,1.7684027E4,9.190597E2,1.9620021E3,2.7632544E3,1.9391178E3,3.5987644E3,1.8466154E3,2.5858633E2,4.296098E1,4.8825924E1,8.0239876E1,1.6355934E3,7.959497E1,1.0830545E2,8.648297E3,9.430237E3,1.6409014E3,1.4767363E4,2.916664E3,6.0656696E2,3.124928E2,1.918213E3,4.378902E1,1.6718728E3,1.0913816E3,1.1307305E3,8.083873E2,3.0029208E2,3.2984724E3,1.4342213E3,4.12394E2,2.2416475E1,2.0544504E1,2.0324339E1,2.8501585E1,4.202017E1,3.8219707E1,8.4793823E2,7.8765515E2,4.3598663E1,3.5996304E1,3.096792E1,7.733753E1,8.451088E3,1.9720938E2],"tree_param":{"num_deleted":"0","num_feature":"12","num_nodes":"61","size_leaf_vector":"1"}},{"base_weights":[-1.35510275E-2,-7.868241E-1,2.7018113E0,-3.789491E-1,-1.0617241E0,-2.88928E-1,2.814641E0,-8.630991E-1,1.1613578E0,-1.1062425E0,-8.85962E-1,-8.673217E-1,7.15124E-1,1.8915186E0,2.8896444E0,-1.0095856E0,-3.2954085E-1,1.609932E-1,2.6682134E0,-9.1359615E-1,-1.1287835E0,-1.1194373E0,-2.3065472E-1,-1.0187101E0,-3.1252867E-1,1.3703943E0,-5.631919E-2,5.888321E-1,2.5567396E0,2.9163275E0,2.1296391E0,-5.6844797E-2,-4.313139E-2,-3.3032745E-2,9.2796594E-2,2.74192E-1,-1.5984477E-4,1.4932734E-1,9.228062E-2,-5.4408826E-2,-2.888494E-3,-5.790863E-2,-5.3626668E-2,-5.7706244E-2,-7.1927323E-3,7.25433E-3,-5.817012E-2,-5.6175895E-2,-2.6413491E-2,-4.3364972E-2,1.3801329E-2,-6.283132E-3,1.0080641E-1,1.42203225E-2,1.444038E-1,1.412743E-1,-4.5995705E-2,1.4665402E-1,1.0848705E-1,1.5024398E-1,2.1910578E-2],"categories":[],"categories_nodes":[],"categories_segments":[],"categories_sizes":[],"default_left":[0,0,0,0,0,0,0,0,0,0,0,0,0,0,0,0,0,0,0,0,0,0,0,0,0,0,0,0,0,0,0,0,0,0,0,0,0,0,0,0,0,0,0,0,0,0,0,0,0,0,0,0,0,0,0,0,0,0,0,0,0],"id":4,"left_children":[1,3,5,7,9,11,13,15,17,19,21,23,25,27,29,31,33,35,37,39,41,43,45,47,49,51,-1,53,55,57,59,-1,-1,-1,-1,-1,-1,-1,-1,-1,-1,-1,-1,-1,-1,-1,-1,-1,-1,-1,-1,-1,-1,-1,-1,-1,-1,-1,-1,-1,-1],"loss_changes":[1.0969603E5,4.5578887E3,3.9104766E3,1.2214048E4,1.8710352E2,2.467591E2,7.593203E2,9.726074E2,5.9021147E3,8.103125E1,7.517527E2,2.1322815E1,1.9055624E2,7.275403E2,1.9425781E2,1.7992383E2,1.9469282E3,2.0621929E3,3.9571777E2,3.043794E2,2.5048828E1,1.2177246E2,4.5500742E2,8.783508E0,2.080347E1,1.13140686E2,0E0,1.9866461E2,5.278926E2,1.09296875E2,5.255763E2,0E0,0E0,0E0,0E0,0E0,0E0,0E0,0E0,0E0,0E0,0E0,0E0,0E0,0E0,0E0,0E0,0E0,0E0,0E0,0E0,0E0,0E0,0E0,0E0,0E0,0E0,0E0,0E0,0E0,0E0],"parents":[2147483647,0,0,1,1,2,2,3,3,4,4,5,5,6,6,7,7,8,8,9,9,10,10,11,11,12,12,13,13,14,14,15,15,16,16,17,17,18,18,19,19,20,20,21,21,22,22,23,23,24,24,25,25,27,27,28,28,29,29,30,30],"right_children":[2,4,6,8,10,12,14,16,18,20,22,24,26,28,30,32,34,36,38,40,42,44,46,48,50,52,-1,54,56,58,60,-1,-1,-1,-1,-1,-1,-1,-1,-1,-1,-1,-1,-1,-1,-1,-1,-1,-1,-1,-1,-1,-1,-1,-1,-1,-1,-1,-1,-1,-1],"split_conditions":[1.2050041E0,3.2176752E0,5.4704204E0,9.6090145E-2,7.1803063E-1,1.4186575E0,-7.053473E-1,3.995493E-2,3.995493E-2,1.8180679E-1,9.356788E-2,5.322278E0,9.356788E-2,6.5615387E0,8.660254E-1,-5.570379E-1,7.069951E-2,2.6844404E0,9.356788E-2,3.8936553E0,9.356788E-2,1.1414475E0,5.0162196E0,3.995493E-2,-7.053473E-1,-7.053473E-1,-5.631919E-2,2.451937E0,3.0741901E0,3.0741901E0,5.901865E0,-5.6844797E-2,-4.313139E-2,-3.3032745E-2,9.2796594E-2,2.74192E-1,-1.5984477E-4,1.4932734E-1,9.228062E-2,-5.4408826E-2,-2.888494E-3,-5.790863E-2,-5.3626668E-2,-5.7706244E-2,-7.1927323E-3,7.25433E-3,-5.817012E-2,-5.6175895E-2,-2.6413491E-2,-4.3364972E-2,1.3801329E-2,-6.283132E-3,1.0080641E-1,1.42203225E-2,1.444038E-1,1.412743E-1,-4.5995705E-2,1.4665402E-1,1.0848705E-1,1.5024398E-1,2.1910578E-2],"split_indices":[2,0,0,2,2,2,3,5,5,2,7,0,7,0,3,11,2,0,7,0,7,2,0,5,3,3,0,2,2,2,0,0,0,0,0,0,0,0,0,0,0,0,0,0,0,0,0,0,0,0,0,0,0,0,0,0,0,0,0,0,0],"split_type":[0,0,0,0,0,0,0,0,0,0,0,0,0,0,0,0,0,0,0,0,0,0,0,0,0,0,0,0,0,0,0,0,0,0,0,0,0,0,0,0,0,0,0,0,0,0,0,0,0,0,0,0,0,0,0,0,0,0,0,0,0],"sum_hessian":[5.223969E4,4.0661758E4,1.1577934E4,1.637395E4,2.4287809E4,4.2063943E2,1.1157294E4,1.2459027E4,3.914923E3,1.9368541E4,4.919267E3,2.673819E2,1.5325755E2,8.428485E2,1.0314446E4,9.773128E3,2.6858994E3,2.354424E3,1.560499E3,2.0398809E3,1.732866E4,3.6254124E3,1.2938549E3,2.080397E2,5.9342186E1,1.136133E2,3.9644253E1,2.864406E2,5.564079E2,9.958482E3,3.5596353E2,5.2275776E3,4.54555E3,2.3339187E3,3.519805E2,6.860421E1,2.2858198E3,1.120871E3,4.3962808E2,1.6933304E3,3.465504E2,1.1350333E4,5.9783267E3,3.500086E3,1.2532647E2,9.2313763E2,3.7071722E2,1.6844221E2,3.9597485E1,3.0497572E1,2.8844614E1,3.450574E1,7.910755E1,2.5512613E2,3.1314486E1,5.169648E2,3.944313E1,9.733539E3,2.2494365E2,2.3336078E2,1.2260276E2],"tree_param":{"num_deleted":"0","num_feature":"12","num_nodes":"61","size_leaf_vector":"1"}},{"base_weights":[-1.4585163E-2,-7.723648E-1,2.4496188E0,-1.022613E0,-3.0744141E-2,-2.6737425E-1,2.547023E0,-1.066859E0,-5.928941E-1,7.734992E-1,-7.861137E-1,-9.524546E-1,1.18091E0,1.7988738E0,2.6899586E0,-9.706767E-1,-1.1277597E0,1.27544E0,-1.0637789E0,-2.8721943E-1,2.1125934E0,-1.0400361E0,-1.1026994E-1,-5.403566E-2,-1.7211202E-1,1.8084456E0,-5.638218E-2,1.4664452E-1,1.4525002E0,1.4955411E0,2.7036524E0,-5.3750653E-2,-1.6358243E-2,-5.7216506E-2,-5.377018E-2,-5.6575965E-2,1.3361181E-1,-3.5608735E-2,-5.5875327E-2,1.0944402E-2,-5.5302676E-2,1.4643648E-1,8.757214E-2,-3.9192494E-2,-5.7566453E-2,4.4461414E-2,-5.8199298E-2,3.3465426E-2,-5.269887E-2,-2.752866E-3,1.2540898E-1,-2.4463786E-2,1.04808025E-1,1.4403214E-1,4.456787E-2,1.3923475E-1,1.3339923E-1],"categories":[],"categories_nodes":[],"categories_segments":[],"categories_sizes":[],"default_left":[0,0,0,0,0,0,0,0,0,0,0,0,0,0,0,0,0,0,0,0,0,0,0,0,0,0,0,0,0,0,0,0,0,0,0,0,0,0,0,0,0,0,0,0,0,0,0,0,0,0,0,0,0,0,0,0,0],"id":5,"left_children":[1,3,5,7,9,11,13,15,17,19,21,23,25,27,29,31,33,35,37,39,41,43,45,-1,47,49,-1,-1,51,53,55,-1,-1,-1,-1,-1,-1,-1,-1,-1,-1,-1,-1,-1,-1,-1,-1,-1,-1,-1,-1,-1,-1,-1,-1,-1,-1],"loss_changes":[9.625897E4,7.3164062E3,3.2110312E3,5.583828E2,6.045659E3,4.2007495E2,1.2397344E3,1.5329102E2,2.4285044E3,6.847936E3,8.799158E2,2.775644E1,2.0133551E2,7.293447E2,1.5047656E2,6.953828E2,1.0609375E1,1.8753164E3,3.912256E1,1.1160858E3,6.1542773E2,1.0356738E2,1.4812567E3,0E0,3.3869858E1,1.4208612E2,0E0,0E0,1.8120776E3,9.02439E1,1.04765625E1,0E0,0E0,0E0,0E0,0E0,0E0,0E0,0E0,0E0,0E0,0E0,0E0,0E0,0E0,0E0,0E0,0E0,0E0,0E0,0E0,0E0,0E0,0E0,0E0,0E0,0E0],"parents":[2147483647,0,0,1,1,2,2,3,3,4,4,5,5,6,6,7,7,8,8,9,9,10,10,11,11,12,12,13,13,14,14,15,15,16,16,17,17,18,18,19,19,20,20,21,21,22,22,24,24,25,25,28,28,29,29,30,30],"right_children":[2,4,6,8,10,12,14,16,18,20,22,24,26,28,30,32,34,36,38,40,42,44,46,-1,48,50,-1,-1,52,54,56,-1,-1,-1,-1,-1,-1,-1,-1,-1,-1,-1,-1,-1,-1,-1,-1,-1,-1,-1,-1,-1,-1,-1,-1,-1,-1],"split_conditions":[1.2050041E0,7.09077E-1,5.4704204E0,3.995493E-2,3.24688E0,7.09077E-1,5.078482E-1,3.2176752E0,3.8196555E-1,8.548565E-2,2.252281E0,1.4981443E0,9.356788E-2,3.7888818E0,-7.053473E-1,1.0890607E-1,2.3006577E0,6.724345E-2,2.362739E0,9.356788E-2,2.6804122E-1,3.6884618E-1,3.7888818E0,-5.403566E-2,5.2023597E0,5.322278E0,-5.638218E-2,1.4664452E-1,1.9353155E0,7.0710677E-1,3.7888818E0,-5.3750653E-2,-1.6358243E-2,-5.7216506E-2,-5.377018E-2,-5.6575965E-2,1.3361181E-1,-3.5608735E-2,-5.5875327E-2,1.0944402E-2,-5.5302676E-2,1.4643648E-1,8.757214E-2,-3.9192494E-2,-5.7566453E-2,4.4461414E-2,-5.8199298E-2,3.3465426E-2,-5.269887E-2,-2.752866E-3,1.2540898E-1,-2.4463786E-2,1.04808025E-1,1.4403214E-1,4.456787E-2,1.3923475E-1,1.3339923E-1],"split_indices":[2,4,0,5,0,4,4,0,1,2,1,2,7,1,3,2,1,2,0,7,1,2,1,0,1,0,0,0,2,4,1,0,0,0,0,0,0,0,0,0,0,0,0,0,0,0,0,0,0,0,0,0,0,0,0,0,0],"split_type":[0,0,0,0,0,0,0,0,0,0,0,0,0,0,0,0,0,0,0,0,0,0,0,0,0,0,0,0,0,0,0,0,0,0,0,0,0,0,0,0,0,0,0,0,0,0,0,0,0,0,0,0,0,0,0,0,0],"sum_hessian":[5.1545586E4,3.9423766E4,1.2121822E4,2.947609E4,9.947675E3,4.1922894E2,1.1702593E4,2.6720668E4,2.7554216E3,4.817628E3,5.1300474E3,2.8530252E2,1.339264E2,1.882088E3,9.820505E3,1.0375865E4,1.6344803E4,5.537648E2,2.2016567E3,2.6889019E3,2.128726E3,3.727692E3,1.4023553E3,2.4381763E2,4.1484905E1,1.05813034E2,2.8113375E1,4.365286E2,1.4455594E3,1.14227066E2,9.706277E3,8.926449E3,1.4494152E3,1.2376464E4,3.9683394E3,2.0335876E2,3.5040598E2,2.9684717E2,1.9048097E3,1.6623105E3,1.0265913E3,6.482325E2,1.4804935E3,1.1351831E3,2.5925088E3,7.1960986E2,6.827454E2,2.1185814E1,2.0299091E1,2.9193676E1,7.661936E1,3.598069E2,1.0857526E3,3.2152863E1,8.20742E1,2.9149336E3,6.791344E3],"tree_param":{"num_deleted":"0","num_feature":"12","num_nodes":"57","size_leaf_vector":"1"}},{"base_weights":[-1.28054535E-2,-7.401151E-1,2.2325842E0,-1.0054133E0,1.3756184E-2,1.3268912E0,2.428616E0,-1.0500889E0,-5.710387E-1,7.323423E-1,-6.732354E-1,1.328655E-1,9.8306924E-1,1.1148677E0,2.4459612E0,-9.554673E-1,-1.110545E0,1.2227727E0,-1.06379E0,-9.083004E-1,1.325462E0,-1.0236053E0,1.7847598E-1,-7.0659363E-1,1.9978405E0,9.293868E-3,2.1362798E0,2.3484452E0,2.5133429E0,-5.660674E-2,-3.9240398E-2,-5.584545E-2,-3.2849483E-2,-5.7229597E-2,1.1448357E-1,-3.5418764E-2,-5.603345E-2,-2.8675854E-2,-5.1748812E-2,8.297647E-2,-3.5527311E-3,-5.5963214E-2,-3.717846E-2,3.842886E-2,-5.744381E-2,1.4157541E-2,-5.6526143E-2,1.0939833E-1,-1.9258304E-2,5.072568E-2,-3.9653573E-2,7.7008E-2,1.20718494E-1,1.2604214E-1,5.464777E-2,1.2639135E-1,1.0659251E-1],"categories":[],"categories_nodes":[],"categories_segments":[],"categories_sizes":[],"default_left":[0,0,0,0,0,0,0,0,0,0,0,0,0,0,0,0,0,0,0,0,0,0,0,0,0,0,0,0,0,0,0,0,0,0,0,0,0,0,0,0,0,0,0,0,0,0,0,0,0,0,0,0,0,0,0,0,0],"id":6,"left_children":[1,3,5,7,9,11,13,15,17,19,21,-1,23,25,27,29,31,33,35,37,39,41,43,45,47,49,51,53,55,-1,-1,-1,-1,-1,-1,-1,-1,-1,-1,-1,-1,-1,-1,-1,-1,-1,-1,-1,-1,-1,-1,-1,-1,-1,-1,-1,-1],"loss_changes":[8.28551E4,7.6650605E3,2.1955352E3,5.480996E2,4.9263647E3,1.00547925E3,2.2522266E2,1.4386133E2,2.344042E3,4.7491514E3,1.5231167E3,0E0,3.0253582E3,1.5357437E2,5.1910156E1,2.9986816E2,4.286328E1,1.4494822E3,3.9535645E1,5.2976196E1,1.6729033E3,9.424805E1,1.1672323E3,2.7907785E2,5.0179346E2,5.6585594E1,2.3486633E0,8.9025977E2,1.9609375E1,0E0,0E0,0E0,0E0,0E0,0E0,0E0,0E0,0E0,0E0,0E0,0E0,0E0,0E0,0E0,0E0,0E0,0E0,0E0,0E0,0E0,0E0,0E0,0E0,0E0,0E0,0E0,0E0],"parents":[2147483647,0,0,1,1,2,2,3,3,4,4,5,5,6,6,7,7,8,8,9,9,10,10,12,12,13,13,14,14,15,15,16,16,17,17,18,18,19,19,20,20,21,21,22,22,23,23,24,24,25,25,26,26,27,27,28,28],"right_children":[2,4,6,8,10,12,14,16,18,20,22,-1,24,26,28,30,32,34,36,38,40,42,44,46,48,50,52,54,56,-1,-1,-1,-1,-1,-1,-1,-1,-1,-1,-1,-1,-1,-1,-1,-1,-1,-1,-1,-1,-1,-1,-1,-1,-1,-1,-1,-1],"split_conditions":[5.5376887E0,7.09077E-1,5.078482E-1,3.995493E-2,3.24688E0,3.7888818E0,-7.053473E-1,3.2176752E0,3.8196555E-1,-5.570379E-1,2.3006577E0,1.328655E-1,6.4672174E0,6.606217E0,6.5615387E0,2.099244E0,5.409098E0,1.8764069E0,2.362739E0,1.3442571E-1,7.394326E-1,1.4439102E0,5.566372E0,1.3703141E1,7.0515523E0,1.3703141E1,5.6160223E-1,1.3703141E1,1.5058582E1,-5.660674E-2,-3.9240398E-2,-5.584545E-2,-3.2849483E-2,-5.7229597E-2,1.1448357E-1,-3.5418764E-2,-5.603345E-2,-2.8675854E-2,-5.1748812E-2,8.297647E-2,-3.5527311E-3,-5.5963214E-2,-3.717846E-2,3.842886E-2,-5.744381E-2,1.4157541E-2,-5.6526143E-2,1.0939833E-1,-1.9258304E-2,5.072568E-2,-3.9653573E-2,7.7008E-2,1.20718494E-1,1.2604214E-1,5.464777E-2,1.2639135E-1,1.0659251E-1],"split_indices":[0,4,4,5,0,1,3,0,1,11,1,0,0,0,0,0,0,0,0,1,1,1,1,1,0,1,6,1,11,0,0,0,0,0,0,0,0,0,0,0,0,0,0,0,0,0,0,0,0,0,0,0,0,0,0,0,0],"split_type":[0,0,0,0,0,0,0,0,0,0,0,0,0,0,0,0,0,0,0,0,0,0,0,0,0,0,0,0,0,0,0,0,0,0,0,0,0,0,0,0,0,0,0,0,0,0,0,0,0,0,0,0,0,0,0,0,0],"sum_hessian":[5.0731492E4,3.832055E4,1.241094E4,2.8345395E4,9.975157E3,2.211519E3,1.0199421E4,2.5698324E4,2.6470693E3,4.8757593E3,5.099398E3,4.510951E2,1.7604238E3,1.3498233E2,1.0064438E4,1.0034665E4,1.566366E4,5.6958276E2,2.0774866E3,1.2941298E3,3.5816294E3,3.6132095E3,1.4861885E3,6.60598E2,1.0998258E3,6.602489E1,6.8957436E1,4.144934E3,5.9195044E3,4.9235654E3,5.1110996E3,1.544295E4,2.2071019E2,1.7675749E2,3.9282532E2,2.915296E2,1.7859569E3,3.5937173E2,9.34758E2,2.890226E3,6.914033E2,2.687421E3,9.257886E2,1.0296537E3,4.5653476E2,1.979441E2,4.6265393E2,1.01890674E3,8.0919075E1,2.9349537E1,3.667535E1,2.6667353E1,4.2290085E1,3.6423684E3,5.0256567E2,5.6908765E3,2.2862819E2],"tree_param":{"num_deleted":"0","num_feature":"12","num_nodes":"57","size_leaf_vector":"1"}},{"base_weights":[-1.4843461E-2,-7.350628E-1,2.0466993E0,-9.9669486E-1,-9.0410365E-3,1.1513573E0,2.244888E0,-8.018975E-1,-1.0980976E0,6.904945E-1,-7.169291E-1,5.1452714E-1,1.8365273E0,2.1189964E0,2.3250096E0,-9.322049E-1,4.2998996E-1,-1.1290649E0,-1.0568103E0,-8.8315517E-1,1.2301787E0,-1.006896E0,5.49748E-2,1.1798632E-1,-6.956875E-1,2.0242658E0,-4.0684626E-1,2.3201952E0,-5.5321723E-1,1.1694012E-1,1.9585003E0,-5.623139E-2,-3.8279172E-2,-5.563372E-2,5.6208145E-2,-4.9756203E-2,-5.659448E-2,9.794565E-3,-5.3799696E-2,-4.8381735E-2,-1.29759E-2,7.599183E-2,-9.5477345E-4,-5.6118507E-2,-3.5392925E-2,3.5321455E-2,-5.4450333E-2,6.538763E-3,-5.6245934E-2,8.1417136E-2,1.1078011E-1,-5.2918978E-2,1.7327916E-2,1.18980646E-1,1.016429E-1,-6.135946E-2,4.0060602E-2,5.3177178E-2,1.1011759E-1],"categories":[],"categories_nodes":[],"categories_segments":[],"categories_sizes":[],"default_left":[0,0,0,0,0,0,0,0,0,0,0,0,0,0,0,0,0,0,0,0,0,0,0,0,0,0,0,0,0,0,0,0,0,0,0,0,0,0,0,0,0,0,0,0,0,0,0,0,0,0,0,0,0,0,0,0,0,0,0],"id":7,"left_children":[1,3,5,7,9,11,13,15,17,19,21,23,25,27,29,31,33,35,37,39,41,43,45,-1,47,49,51,53,55,-1,57,-1,-1,-1,-1,-1,-1,-1,-1,-1,-1,-1,-1,-1,-1,-1,-1,-1,-1,-1,-1,-1,-1,-1,-1,-1,-1,-1,-1],"loss_changes":[7.412432E4,7.027324E3,2.2867148E3,5.345078E2,4.8556094E3,1.0210796E3,9.464453E1,1.497105E3,1.9378906E1,4.1905293E3,1.0915134E3,2.7276775E3,4.7816528E2,2.2292227E3,2.1253906E1,2.6759033E2,9.582995E2,5.341797E-1,1.8592383E2,6.528186E1,1.33E3,1.1986035E2,9.942999E2,0E0,2.625692E2,6.986084E1,4.4621365E1,5.386133E1,2.681068E2,0E0,4.7646606E1,0E0,0E0,0E0,0E0,0E0,0E0,0E0,0E0,0E0,0E0,0E0,0E0,0E0,0E0,0E0,0E0,0E0,0E0,0E0,0E0,0E0,0E0,0E0,0E0,0E0,0E0,0E0,0E0],"parents":[2147483647,0,0,1,1,2,2,3,3,4,4,5,5,6,6,7,7,8,8,9,9,10,10,11,11,12,12,13,13,14,14,15,15,16,16,17,17,18,18,19,19,20,20,21,21,22,22,24,24,25,25,26,26,27,27,28,28,30,30],"right_children":[2,4,6,8,10,12,14,16,18,20,22,24,26,28,30,32,34,36,38,40,42,44,46,-1,48,50,52,54,56,-1,58,-1,-1,-1,-1,-1,-1,-1,-1,-1,-1,-1,-1,-1,-1,-1,-1,-1,-1,-1,-1,-1,-1,-1,-1,-1,-1,-1,-1],"split_conditions":[5.4704204E0,7.09077E-1,5.078482E-1,6.650641E-1,3.24688E0,6.4672174E0,6.4672174E0,3.995493E-2,1.4439102E0,-5.570379E-1,2.4068604E0,3.7888818E0,7.0515523E0,1.3703141E1,1.5058582E1,-5.5050373E-1,1.9726912E0,6.815192E-1,2.5657182E0,1.9257075E0,7.4749655E-1,9.356788E-2,4.865017E0,1.1798632E-1,1.3703141E1,9.356788E-2,9.356788E-2,5.2023597E0,6.297662E0,1.1694012E-1,9.356788E-2,-5.623139E-2,-3.8279172E-2,-5.563372E-2,5.6208145E-2,-4.9756203E-2,-5.659448E-2,9.794565E-3,-5.3799696E-2,-4.8381735E-2,-1.29759E-2,7.599183E-2,-9.5477345E-4,-5.6118507E-2,-3.5392925E-2,3.5321455E-2,-5.4450333E-2,6.538763E-3,-5.6245934E-2,8.1417136E-2,1.1078011E-1,-5.2918978E-2,1.7327916E-2,1.18980646E-1,1.016429E-1,-6.135946E-2,4.0060602E-2,5.3177178E-2,1.1011759E-1],"split_indices":[0,4,4,1,0,0,0,5,1,11,1,1,0,1,11,11,0,1,0,0,1,7,1,0,1,7,7,1,0,0,7,0,0,0,0,0,0,0,0,0,0,0,0,0,0,0,0,0,0,0,0,0,0,0,0,0,0,0,0],"split_type":[0,0,0,0,0,0,0,0,0,0,0,0,0,0,0,0,0,0,0,0,0,0,0,0,0,0,0,0,0,0,0,0,0,0,0,0,0,0,0,0,0,0,0,0,0,0,0,0,0,0,0,0,0,0,0,0,0,0,0],"sum_hessian":[4.9919754E4,3.6996285E4,1.292347E4,2.7194818E4,9.801467E3,2.3451418E3,1.0578328E4,9.317808E3,1.787701E4,4.929487E3,4.87198E3,1.2176399E3,1.1275018E3,4.137842E3,6.4404863E3,8.427274E3,8.90533E2,1.0178129E4,7.698882E3,1.2582864E3,3.6712002E3,3.541608E3,1.3303721E3,4.8170453E2,7.359354E2,1.0408184E3,8.668344E1,3.8485254E3,2.8931635E2,6.195213E3,2.4527356E2,3.9041106E3,4.5231636E3,2.7576746E2,6.1476556E2,2.2845807E2,9.949671E3,1.1544953E2,7.5834326E3,1.106493E3,1.5179337E2,2.9801802E3,6.9102E2,2.549813E3,9.917949E2,8.4842694E2,4.8194513E2,2.5164041E2,4.8429498E2,3.461602E2,6.946582E2,4.6406143E1,4.0277294E1,3.175558E3,6.729673E2,1.9355786E2,9.575849E1,5.525522E1,1.9001834E2],"tree_param":{"num_deleted":"0","num_feature":"12","num_nodes":"59","size_leaf_vector":"1"}},{"base_weights":[-1.3721407E-2,-7.2566295E-1,1.9621018E0,-9.844747E-1,-2.6204936E-2,-2.2220837E-1,2.0313542E0,-7.8227276E-1,-1.0904386E0,6.4753723E-1,-7.4230623E-1,-9.1743803E-1,1.0283878E0,1.4539096E0,2.1414478E0,-9.165616E-1,4.3287164E-1,-5.6077685E-2,-1.0497642E0,-2.1237159E-1,1.7584665E0,-1.001804E0,-1.0929128E-1,-5.3042162E-2,-4.973506E-3,1.5785939E0,-5.5876065E-2,1.1468323E-1,1.1921132E0,2.1493375E0,1.7591617E0,-5.3633254E-2,-3.3060115E-2,-5.6809116E-2,5.575744E-2,1.21804215E-2,-5.3411644E-2,1.3855114E-2,-5.30083E-2,1.2054E-1,7.155636E-2,-3.598961E-2,-5.6134205E-2,3.8063437E-2,-5.7321157E-2,-5.212871E-3,1.0711827E-1,-2.4163501E-2,8.461713E-2,1.04356244E-1,1.0989048E-1,1.0676316E-1,3.722274E-2],"categories":[],"categories_nodes":[],"categories_segments":[],"categories_sizes":[],"default_left":[0,0,0,0,0,0,0,0,0,0,0,0,0,0,0,0,0,0,0,0,0,0,0,0,0,0,0,0,0,0,0,0,0,0,0,0,0,0,0,0,0,0,0,0,0,0,0,0,0,0,0,0,0],"id":8,"left_children":[1,3,5,7,9,11,13,15,17,19,21,23,25,27,29,31,33,-1,35,37,39,41,43,-1,-1,45,-1,-1,47,49,51,-1,-1,-1,-1,-1,-1,-1,-1,-1,-1,-1,-1,-1,-1,-1,-1,-1,-1,-1,-1,-1,-1],"loss_changes":[6.882042E4,6.5102305E3,1.9621211E3,5.598242E2,4.688789E3,3.4945386E2,7.9053516E2,1.4754219E3,1.834961E1,4.784602E3,7.7314087E2,2.9505249E1,1.7323314E2,4.3651562E2,2.2289062E1,3.22083E2,9.661477E2,0E0,1.8010449E2,1.172797E3,4.5776465E2,1.1134668E2,1.2412659E3,0E0,0E0,1.1081818E2,0E0,0E0,1.2956389E3,1.9808594E1,8.144995E1,0E0,0E0,0E0,0E0,0E0,0E0,0E0,0E0,0E0,0E0,0E0,0E0,0E0,0E0,0E0,0E0,0E0,0E0,0E0,0E0,0E0,0E0],"parents":[2147483647,0,0,1,1,2,2,3,3,4,4,5,5,6,6,7,7,8,8,9,9,10,10,11,11,12,12,13,13,14,14,15,15,16,16,18,18,19,19,20,20,21,21,22,22,25,25,28,28,29,29,30,30],"right_children":[2,4,6,8,10,12,14,16,18,20,22,24,26,28,30,32,34,-1,36,38,40,42,44,-1,-1,46,-1,-1,48,50,52,-1,-1,-1,-1,-1,-1,-1,-1,-1,-1,-1,-1,-1,-1,-1,-1,-1,-1,-1,-1,-1,-1],"split_conditions":[1.2050041E0,7.09077E-1,5.4704204E0,6.650641E-1,3.24688E0,7.09077E-1,5.078482E-1,3.995493E-2,1.4439102E0,9.6090145E-2,2.3006577E0,1.4981443E0,9.356788E-2,3.7888818E0,3.0741901E0,8.548565E-2,2.3956286E-2,-5.6077685E-2,2.481644E-2,9.356788E-2,3.0142945E-1,3.6884618E-1,3.7888818E0,-5.3042162E-2,-4.973506E-3,5.322278E0,-5.5876065E-2,1.1468323E-1,1.9353155E0,6.606217E0,7.0515523E0,-5.3633254E-2,-3.3060115E-2,-5.6809116E-2,5.575744E-2,1.21804215E-2,-5.3411644E-2,1.3855114E-2,-5.30083E-2,1.2054E-1,7.155636E-2,-3.598961E-2,-5.6134205E-2,3.8063437E-2,-5.7321157E-2,-5.212871E-3,1.0711827E-1,-2.4163501E-2,8.461713E-2,1.04356244E-1,1.0989048E-1,1.0676316E-1,3.722274E-2],"split_indices":[2,4,0,1,0,4,4,5,1,2,1,2,7,1,2,2,2,0,2,7,1,2,1,0,0,0,0,0,2,0,0,0,0,0,0,0,0,0,0,0,0,0,0,0,0,0,0,0,0,0,0,0,0],"split_type":[0,0,0,0,0,0,0,0,0,0,0,0,0,0,0,0,0,0,0,0,0,0,0,0,0,0,0,0,0,0,0,0,0,0,0,0,0,0,0,0,0,0,0,0,0,0,0,0,0,0,0,0,0],"sum_hessian":[4.892075E4,3.596362E4,1.2957128E4,2.6249363E4,9.714259E3,3.97818E2,1.2559311E4,9.033321E3,1.7216041E4,5.004902E3,4.7093564E3,2.5627988E2,1.4153813E2,2.0163649E3,1.0542945E4,8.135183E3,8.981379E2,9.717189E3,7.498852E3,2.8218396E3,2.1830623E3,3.3387263E3,1.3706301E3,2.1702599E2,3.925388E1,1.1326022E2,2.8277914E1,4.7506955E2,1.5412953E3,1.0319417E4,2.2352843E2,5.0436147E3,3.091568E3,2.7155984E2,6.26578E2,1.04848E2,7.3940044E3,1.7894548E3,1.0323846E3,7.2466547E2,1.4583969E3,1.0071364E3,2.3315898E3,7.451811E2,6.2544904E2,2.8608234E1,8.4651985E1,3.5416925E2,1.187126E3,4.5622734E3,5.7571436E3,1.6111115E2,6.2417286E1],"tree_param":{"num_deleted":"0","num_feature":"12","num_nodes":"53","size_leaf_vector":"1"}},{"base_weights":[-1.52347125E-2,-7.0634556E-1,1.8099208E0,-3.1924462E-1,-9.937773E-1,9.592947E-1,1.8880881E0,-6.956853E-1,5.72457E-1,-1.0562057E0,-7.9637486E-1,-1.1052853E-1,1.7284548E0,1.9233025E0,1.0230032E0,-8.835637E-1,1.8796192E-1,-9.4597846E-1,1.0816152E0,-9.7560894E-1,-1.1129768E0,-1.0099161E0,-3.217186E-1,7.1729705E-2,-6.735949E-1,1.892628E0,-1.4104703E-1,1.7668072E0,2.0249891E0,1.5007254E0,-3.4988385E-1,-5.4095007E-2,-3.3226706E-2,-2.2683661E-2,3.3067483E-2,-5.0194006E-2,-1.8294912E-2,7.650094E-2,6.2031546E-3,-5.4330338E-2,-2.8039042E-2,-5.603669E-2,-5.1208902E-2,-5.4908026E-2,-2.279296E-3,2.840644E-2,-5.656795E-2,-8.949007E-3,1.5108219E-1,-7.797841E-3,-5.007845E-2,7.206478E-2,1.04775004E-1,-4.2813413E-2,3.7330758E-2,5.8950145E-2,9.6970215E-2,1.0231637E-1,7.420564E-2,8.710899E-2,-1.7188935E-3,-5.1838633E-2,1.0572797E-2],"categories":[],"categories_nodes":[],"categories_segments":[],"categories_sizes":[],"default_left":[0,0,0,0,0,0,0,0,0,0,0,0,0,0,0,0,0,0,0,0,0,0,0,0,0,0,0,0,0,0,0,0,0,0,0,0,0,0,0,0,0,0,0,0,0,0,0,0,0,0,0,0,0,0,0,0,0,0,0,0,0,0,0],"id":9,"left_children":[1,3,5,7,9,11,13,15,17,19,21,23,25,27,29,31,33,35,37,39,41,43,45,47,49,51,53,55,57,59,61,-1,-1,-1,-1,-1,-1,-1,-1,-1,-1,-1,-1,-1,-1,-1,-1,-1,-1,-1,-1,-1,-1,-1,-1,-1,-1,-1,-1,-1,-1,-1,-1],"loss_changes":[6.050777E4,3.8701445E3,8.7098047E2,4.979016E3,2.4344531E2,9.173833E2,3.6209375E2,1.732145E3,3.4061924E3,6.61543E1,4.859436E2,4.835329E1,2.0033179E2,1.753711E2,3.1426382E2,3.7135254E2,5.565035E2,3.5744568E1,1.4150847E3,2.873755E2,2.7470703E0,2.8133545E2,1.0788755E3,2.6443262E2,1.8655388E1,4.6779053E1,3.5576267E1,4.5872754E2,7.3052734E1,1.3229047E2,4.8818867E1,0E0,0E0,0E0,0E0,0E0,0E0,0E0,0E0,0E0,0E0,0E0,0E0,0E0,0E0,0E0,0E0,0E0,0E0,0E0,0E0,0E0,0E0,0E0,0E0,0E0,0E0,0E0,0E0,0E0,0E0,0E0,0E0],"parents":[2147483647,0,0,1,1,2,2,3,3,4,4,5,5,6,6,7,7,8,8,9,9,10,10,11,11,12,12,13,13,14,14,15,15,16,16,17,17,18,18,19,19,20,20,21,21,22,22,23,23,24,24,25,25,26,26,27,27,28,28,29,29,30,30],"right_children":[2,4,6,8,10,12,14,16,18,20,22,24,26,28,30,32,34,36,38,40,42,44,46,48,50,52,54,56,58,60,62,-1,-1,-1,-1,-1,-1,-1,-1,-1,-1,-1,-1,-1,-1,-1,-1,-1,-1,-1,-1,-1,-1,-1,-1,-1,-1,-1,-1,-1,-1,-1,-1],"split_conditions":[5.4704204E0,3.2176752E0,-7.053473E-1,3.995493E-2,7.517016E-1,6.5615387E0,8.660254E-1,-4.0893006E-1,-5.5935204E-1,3.9945242E0,9.356788E-2,-7.0710677E-1,7.0515523E0,6.4672174E0,9.356788E-2,-5.527993E-1,-7.053473E-1,1.9257075E0,9.356788E-2,8.712216E-3,4.572647E0,5.3631682E0,5.6160223E-1,-8.627623E-1,5.726514E0,5.6160223E-1,5.6160223E-1,3.995493E-2,7.0515523E0,6.0360556E0,1E0,-5.4095007E-2,-3.3226706E-2,-2.2683661E-2,3.3067483E-2,-5.0194006E-2,-1.8294912E-2,7.650094E-2,6.2031546E-3,-5.4330338E-2,-2.8039042E-2,-5.603669E-2,-5.1208902E-2,-5.4908026E-2,-2.279296E-3,2.840644E-2,-5.656795E-2,-8.949007E-3,1.5108219E-1,-7.797841E-3,-5.007845E-2,7.206478E-2,1.04775004E-1,-4.2813413E-2,3.7330758E-2,5.8950145E-2,9.6970215E-2,1.0231637E-1,7.420564E-2,8.710899E-2,-1.7188935E-3,-5.1838633E-2,1.0572797E-2],"split_indices":[0,0,3,5,11,0,3,11,11,0,7,3,0,0,7,11,3,0,7,11,0,0,6,3,0,6,6,5,0,0,8,0,0,0,0,0,0,0,0,0,0,0,0,0,0,0,0,0,0,0,0,0,0,0,0,0,0,0,0,0,0,0,0],"split_type":[0,0,0,0,0,0,0,0,0,0,0,0,0,0,0,0,0,0,0,0,0,0,0,0,0,0,0,0,0,0,0,0,0,0,0,0,0,0,0,0,0,0,0,0,0,0,0,0,0,0,0,0,0,0,0,0,0,0,0,0,0,0,0],"sum_hessian":[4.796573E4,3.479268E4,1.3173048E4,1.4828389E4,1.9964291E4,1.111417E3,1.2061631E4,1.0427371E4,4.401018E3,1.5159017E4,4.8052754E3,4.6529782E2,6.4611914E2,1.1586945E4,4.7468552E2,8.599531E3,1.8278397E3,1.1044819E3,3.2965361E3,6.2835493E3,8.875467E3,3.3119614E3,1.4933138E3,3.5216364E2,1.1313418E2,5.941828E2,5.193636E1,4.580004E3,7.0069414E3,3.5228073E2,1.2240479E2,4.5076177E3,4.0919138E3,7.756041E2,1.0522356E3,1.0021296E3,1.02352295E2,2.2439968E3,1.0525392E3,4.953635E3,1.3299147E3,8.135895E3,7.3957196E2,3.033568E3,2.7839325E2,7.1140857E2,7.819052E2,3.2615338E2,2.6010248E1,4.5615414E1,6.751876E1,1.9004982E2,4.04133E2,2.9112991E1,2.2823368E1,1.0437892E3,3.5362148E3,6.734756E3,2.721859E2,3.0445007E2,4.7830647E1,5.468535E1,6.771944E1],"tree_param":{"num_deleted":"0","num_feature":"12","num_nodes":"63","size_leaf_vector":"1"}},{"base_weights":[-1.8946195E-2,-7.0377773E-1,1.7520118E0,-9.654426E-1,-2.6668245E-2,-1.825512E-1,1.8107893E0,-7.79706E-1,-1.0855894E0,5.7582915E-1,-7.1201956E-1,-8.881069E-1,9.981601E-1,1.2898431E0,1.9116064E0,-1.020432E0,1.6535854E-2,-1.0883212E0,-7.2903335E-1,-2.2358643E-1,1.5503827E0,-9.7816527E-1,-2.3863639E-1,-9.986563E-1,9.135867E-3,1.4766519E0,-5.4988153E-2,1.3793384E0,-4.2330816E-1,1.0176725E0,1.9226446E0,-5.5298787E-2,-4.6425633E-2,-3.4575272E-2,1.1244997E-1,-5.4947525E-2,-5.1741194E-2,-5.4461833E-2,8.674881E-3,1.1521827E-2,-5.2807536E-2,6.190489E-2,1.0016929E-1,1.1668017E-3,-5.428641E-2,4.096556E-2,-5.680124E-2,-5.2584924E-2,-2.8175175E-2,-1.9504784E-3,9.818151E-2,4.9818087E-2,8.7948404E-2,6.614061E-2,-5.424878E-2,1.0500387E-1,2.6603976E-2,9.644347E-2,8.0961995E-2],"categories":[],"categories_nodes":[],"categories_segments":[],"categories_sizes":[],"default_left":[0,0,0,0,0,0,0,0,0,0,0,0,0,0,0,0,0,0,0,0,0,0,0,0,0,0,0,0,0,0,0,0,0,0,0,0,0,0,0,0,0,0,0,0,0,0,0,0,0,0,0,0,0,0,0,0,0,0,0],"id":10,"left_children":[1,3,5,7,9,11,13,15,17,19,21,23,25,27,29,31,33,35,37,39,41,43,45,47,-1,49,-1,51,53,55,57,-1,-1,-1,-1,-1,-1,-1,-1,-1,-1,-1,-1,-1,-1,-1,-1,-1,-1,-1,-1,-1,-1,-1,-1,-1,-1,-1,-1],"loss_changes":[5.7007676E4,6.0052246E3,1.491957E3,5.4295703E2,3.903328E3,3.250081E2,6.616211E2,1.8428799E3,1.1957031E1,3.920187E3,5.5613135E2,2.9685867E1,1.4983241E2,3.1897778E2,9.975E1,5.496631E1,3.533222E3,5.029297E0,3.993609E1,1.0460137E3,3.141631E2,3.054087E2,1.5162727E3,3.1339111E0,0E0,8.9538605E1,0E0,2.8120605E2,1.2291849E2,6.727594E1,1.1847656E1,0E0,0E0,0E0,0E0,0E0,0E0,0E0,0E0,0E0,0E0,0E0,0E0,0E0,0E0,0E0,0E0,0E0,0E0,0E0,0E0,0E0,0E0,0E0,0E0,0E0,0E0,0E0,0E0],"parents":[2147483647,0,0,1,1,2,2,3,3,4,4,5,5,6,6,7,7,8,8,9,9,10,10,11,11,12,12,13,13,14,14,15,15,16,16,17,17,18,18,19,19,20,20,21,21,22,22,23,23,25,25,27,27,28,28,29,29,30,30],"right_children":[2,4,6,8,10,12,14,16,18,20,22,24,26,28,30,32,34,36,38,40,42,44,46,48,-1,50,-1,52,54,56,58,-1,-1,-1,-1,-1,-1,-1,-1,-1,-1,-1,-1,-1,-1,-1,-1,-1,-1,-1,-1,-1,-1,-1,-1,-1,-1,-1,-1],"split_conditions":[1.2050041E0,7.09077E-1,5.4704204E0,3.2176752E0,3.24688E0,7.09077E-1,5.078482E-1,8.548565E-2,1.1414475E0,9.6090145E-2,9.356788E-2,1.5345981E0,9.356788E-2,3.0741901E0,-7.053473E-1,1.9726912E0,4.4297986E-3,7.4644786E-1,5.409098E0,9.356788E-2,-2.5476894E-1,1.8654689E-1,5.6160223E-1,5.409098E0,9.135867E-3,5.322278E0,-5.4988153E-2,6.606217E0,1E0,7.0710677E-1,3.0741901E0,-5.5298787E-2,-4.6425633E-2,-3.4575272E-2,1.1244997E-1,-5.4947525E-2,-5.1741194E-2,-5.4461833E-2,8.674881E-3,1.1521827E-2,-5.2807536E-2,6.190489E-2,1.0016929E-1,1.1668017E-3,-5.428641E-2,4.096556E-2,-5.680124E-2,-5.2584924E-2,-2.8175175E-2,-1.9504784E-3,9.818151E-2,4.9818087E-2,8.7948404E-2,6.614061E-2,-5.424878E-2,1.0500387E-1,2.6603976E-2,9.644347E-2,8.0961995E-2],"split_indices":[2,4,0,0,0,4,4,2,2,2,7,2,7,2,3,0,3,2,0,7,3,2,6,0,0,0,0,0,9,4,2,0,0,0,0,0,0,0,0,0,0,0,0,0,0,0,0,0,0,0,0,0,0,0,0,0,0,0,0],"split_type":[0,0,0,0,0,0,0,0,0,0,0,0,0,0,0,0,0,0,0,0,0,0,0,0,0,0,0,0,0,0,0,0,0,0,0,0,0,0,0,0,0,0,0,0,0,0,0,0,0,0,0,0,0,0,0,0,0,0,0],"sum_hessian":[4.7001105E4,3.3895258E4,1.3105848E4,2.4446473E4,9.448782E3,3.8607663E2,1.2719771E4,9.609757E3,1.4836717E4,5.028117E3,4.420665E3,2.422405E2,1.4383614E2,2.0677495E3,1.0652021E4,7.3789575E3,2.2307993E3,1.4718443E4,1.1827347E2,2.762828E3,2.2652893E3,2.8276907E3,1.5929745E3,2.2011777E2,2.2122723E1,1.17799225E2,2.6036903E1,1.9657405E3,1.0200907E2,1.3275218E2,1.051927E4,3.8077852E3,3.5711724E3,1.6945254E3,5.36274E2,1.2238383E4,2.4800608E3,8.463543E1,3.363804E1,1.7884027E3,9.744253E2,1.3459838E3,9.193056E2,2.7394537E2,2.5537454E3,7.309092E2,8.620653E2,1.9265205E2,2.7465714E1,2.8842731E1,8.89565E1,9.828208E2,9.829196E2,2.7275574E1,7.47335E1,3.873383E1,9.401836E1,1.0295683E4,2.2358728E2],"tree_param":{"num_deleted":"0","num_feature":"12","num_nodes":"59","size_leaf_vector":"1"}},{"base_weights":[-1.5503324E-2,-6.849883E-1,1.6632559E0,-9.5296633E-1,-1.1939573E-2,-1.846344E-1,1.7177418E0,-7.3921114E-1,-1.0673395E0,5.8370316E-1,-6.942444E-1,-8.652475E-1,9.3319607E-1,1.1958307E0,1.8192568E0,-8.7469393E-1,3.9402255E-1,-5.5120952E-2,-1.0218042E0,-1.2402936E-1,1.5697681E0,-9.55373E-1,-1.0595268E-1,-5.178019E-2,-4.664577E-4,1.3810427E0,-5.4218393E-2,1.01131536E-1,9.44918E-1,1.8277359E0,1.4170569E0,-5.2239772E-2,-3.0564277E-2,-5.568681E-2,4.793176E-2,1.941928E-2,-5.2182924E-2,1.599272E-2,-5.045397E-2,1.0433278E-1,6.5109216E-2,-3.193484E-2,-5.539977E-2,3.2664277E-2,-5.6483608E-2,-1.8747945E-3,9.129851E-2,-3.3755805E-2,6.804573E-2,9.532924E-2,8.9655064E-2,9.103409E-2,1.4210318E-2],"categories":[],"categories_nodes":[],"categories_segments":[],"categories_sizes":[],"default_left":[0,0,0,0,0,0,0,0,0,0,0,0,0,0,0,0,0,0,0,0,0,0,0,0,0,0,0,0,0,0,0,0,0,0,0,0,0,0,0,0,0,0,0,0,0,0,0,0,0,0,0,0,0],"id":11,"left_children":[1,3,5,7,9,11,13,15,17,19,21,23,25,27,29,31,33,-1,35,37,39,41,43,-1,-1,45,-1,-1,47,49,51,-1,-1,-1,-1,-1,-1,-1,-1,-1,-1,-1,-1,-1,-1,-1,-1,-1,-1,-1,-1,-1,-1],"loss_changes":[5.1674953E4,5.928037E3,1.3211953E3,5.722676E2,3.80611E3,2.883887E2,6.6877344E2,1.2602793E3,2.1138672E1,3.4902554E3,6.698738E2,3.3815277E1,1.3266821E2,4.262102E2,2.9535156E1,3.2621338E2,7.4856244E2,0E0,2.0747412E2,1.1450735E3,2.8187207E2,1.4379565E2,1.0469858E3,0E0,0E0,7.575403E1,0E0,0E0,1.0804607E3,1.9792969E1,1.0313144E2,0E0,0E0,0E0,0E0,0E0,0E0,0E0,0E0,0E0,0E0,0E0,0E0,0E0,0E0,0E0,0E0,0E0,0E0,0E0,0E0,0E0,0E0],"parents":[2147483647,0,0,1,1,2,2,3,3,4,4,5,5,6,6,7,7,8,8,9,9,10,10,11,11,12,12,13,13,14,14,15,15,16,16,18,18,19,19,20,20,21,21,22,22,25,25,28,28,29,29,30,30],"right_children":[2,4,6,8,10,12,14,16,18,20,22,24,26,28,30,32,34,-1,36,38,40,42,44,-1,-1,46,-1,-1,48,50,52,-1,-1,-1,-1,-1,-1,-1,-1,-1,-1,-1,-1,-1,-1,-1,-1,-1,-1,-1,-1,-1,-1],"split_conditions":[1.2050041E0,7.09077E-1,5.4704204E0,6.650641E-1,3.2176752E0,7.09077E-1,5.078482E-1,3.995493E-2,1.4439102E0,1.0266277E-1,2.252281E0,1.4981443E0,9.356788E-2,3.7888818E0,3.0741901E0,8.548565E-2,2.3956286E-2,-5.5120952E-2,2.5640815E-2,9.356788E-2,3.1853238E-1,3.6884618E-1,3.7888818E0,-5.178019E-2,-4.664577E-4,5.322278E0,-5.4218393E-2,1.01131536E-1,1.8606635E0,3.7888818E0,7.0515523E0,-5.2239772E-2,-3.0564277E-2,-5.568681E-2,4.793176E-2,1.941928E-2,-5.2182924E-2,1.599272E-2,-5.045397E-2,1.0433278E-1,6.5109216E-2,-3.193484E-2,-5.539977E-2,3.2664277E-2,-5.6483608E-2,-1.8747945E-3,9.129851E-2,-3.3755805E-2,6.804573E-2,9.532924E-2,8.9655064E-2,9.103409E-2,1.4210318E-2],"split_indices":[2,4,0,1,0,4,4,5,1,2,1,2,7,1,2,2,2,0,2,7,1,2,1,0,0,0,0,0,2,1,0,0,0,0,0,0,0,0,0,0,0,0,0,0,0,0,0,0,0,0,0,0,0],"split_type":[0,0,0,0,0,0,0,0,0,0,0,0,0,0,0,0,0,0,0,0,0,0,0,0,0,0,0,0,0,0,0,0,0,0,0,0,0,0,0,0,0,0,0,0,0,0,0,0,0,0,0,0,0],"sum_hessian":[4.5974484E4,3.2868207E4,1.3106277E4,2.3507139E4,9.361069E3,3.7497693E2,1.2731301E4,8.200431E3,1.5306708E4,4.997701E3,4.363368E3,2.3362746E2,1.4134947E2,2.0780513E3,1.0653249E4,7.325531E3,8.7489996E2,8.613584E3,6.6931235E3,2.9101956E3,2.0875056E3,3.0205298E3,1.3428386E3,1.9400914E2,3.9618313E1,1.1639223E2,2.4957241E1,4.800594E2,1.5979918E3,1.0425136E4,2.2811386E2,4.4463667E3,2.8791638E3,2.375932E2,6.3730676E2,1.01282074E2,6.5918413E3,1.9386211E3,9.715745E2,7.067749E2,1.3807307E3,9.8675543E2,2.0337743E3,7.711518E2,5.716869E2,2.7959164E1,8.843306E1,3.2599744E2,1.2719944E3,3.1443062E3,7.280829E3,1.6696867E2,6.114519E1],"tree_param":{"num_deleted":"0","num_feature":"12","num_nodes":"53","size_leaf_vector":"1"}},{"base_weights":[-1.4507774E-2,-6.747353E-1,1.5875639E0,-9.4367516E-1,-1.8461673E-2,-4.7865117E-1,1.631697E0,-7.498443E-1,-1.0717046E0,5.414063E-1,-6.8022716E-1,-5.171622E-2,5.570946E-1,1.1081725E0,1.7355251E0,-9.980664E-1,2.0258294E-2,-1.08683E0,-9.9928427E-1,-2.876413E-1,1.3021293E0,-9.454372E-1,-2.2515869E-1,-2.2278469E-2,1.3882084E0,1.1926329E0,-4.7909415E-1,1.5793567E0,1.7523395E0,-5.1566124E-2,-2.972667E-2,1.4945789E-1,-2.0182783E-2,-5.065133E-2,-5.4742943E-2,-5.3999852E-2,-3.7904337E-2,6.147057E-3,-5.480798E-2,1.1095581E-1,5.403756E-2,-0E0,-5.313141E-2,3.813883E-2,-5.6376565E-2,7.902227E-2,4.7383014E-2,4.004921E-2,7.956229E-2,8.755969E-2,-5.2432057E-2,4.3641865E-2,8.468186E-2,8.504921E-2,8.936239E-2],"categories":[],"categories_nodes":[],"categories_segments":[],"categories_sizes":[],"default_left":[0,0,0,0,0,0,0,0,0,0,0,0,0,0,0,0,0,0,0,0,0,0,0,0,0,0,0,0,0,0,0,0,0,0,0,0,0,0,0,0,0,0,0,0,0,0,0,0,0,0,0,0,0,0,0],"id":12,"left_children":[1,3,5,7,9,11,13,15,17,19,21,-1,23,25,27,29,31,33,35,37,39,41,43,-1,45,47,49,51,53,-1,-1,-1,-1,-1,-1,-1,-1,-1,-1,-1,-1,-1,-1,-1,-1,-1,-1,-1,-1,-1,-1,-1,-1,-1,-1],"loss_changes":[4.7620773E4,5.6267793E3,1.2002617E3,5.586914E2,3.4354624E3,1.6028574E2,6.9402734E2,1.7216821E3,1.1697266E1,3.1688076E3,5.118944E2,0E0,8.286162E1,2.8778613E2,2.0978516E1,8.93457E1,2.7677712E3,3.383789E0,4.3824463E1,7.990066E2,5.253828E2,2.969204E2,1.3998628E3,0E0,3.1424713E-1,3.1293262E2,1.4180313E2,8.1852295E1,9.5078125E0,0E0,0E0,0E0,0E0,0E0,0E0,0E0,0E0,0E0,0E0,0E0,0E0,0E0,0E0,0E0,0E0,0E0,0E0,0E0,0E0,0E0,0E0,0E0,0E0,0E0,0E0],"parents":[2147483647,0,0,1,1,2,2,3,3,4,4,5,5,6,6,7,7,8,8,9,9,10,10,12,12,13,13,14,14,15,15,16,16,17,17,18,18,19,19,20,20,21,21,22,22,24,24,25,25,26,26,27,27,28,28],"right_children":[2,4,6,8,10,12,14,16,18,20,22,-1,24,26,28,30,32,34,36,38,40,42,44,-1,46,48,50,52,54,-1,-1,-1,-1,-1,-1,-1,-1,-1,-1,-1,-1,-1,-1,-1,-1,-1,-1,-1,-1,-1,-1,-1,-1,-1,-1],"split_conditions":[1.2050041E0,7.09077E-1,5.409098E0,3.2176752E0,3.2176752E0,7.09077E-1,5.078482E-1,8.548565E-2,7.4644786E-1,7.4371025E-2,9.356788E-2,-5.171622E-2,5.322278E0,3.0741901E0,7.09077E-1,3.995493E-2,2.5657182E0,1.8180679E-1,9.356788E-2,9.356788E-2,2.4874036E0,1.8180679E-1,5.6160223E-1,-2.2278469E-2,8.664093E-1,6.606217E0,6.7891064E0,3.995493E-2,6.606217E0,-5.1566124E-2,-2.972667E-2,1.4945789E-1,-2.0182783E-2,-5.065133E-2,-5.4742943E-2,-5.3999852E-2,-3.7904337E-2,6.147057E-3,-5.480798E-2,1.1095581E-1,5.403756E-2,-0E0,-5.313141E-2,3.813883E-2,-5.6376565E-2,7.902227E-2,4.7383014E-2,4.004921E-2,7.956229E-2,8.755969E-2,-5.2432057E-2,4.3641865E-2,8.468186E-2,8.504921E-2,8.936239E-2],"split_indices":[2,4,0,0,0,4,4,2,2,2,7,0,0,2,4,5,0,2,7,7,0,2,6,0,4,0,0,5,0,0,0,0,0,0,0,0,0,0,0,0,0,0,0,0,0,0,0,0,0,0,0,0,0,0,0],"split_type":[0,0,0,0,0,0,0,0,0,0,0,0,0,0,0,0,0,0,0,0,0,0,0,0,0,0,0,0,0,0,0,0,0,0,0,0,0,0,0,0,0,0,0,0,0,0,0,0,0,0,0,0,0,0,0],"sum_hessian":[4.5018E4,3.1881023E4,1.3136975E4,2.2612729E4,9.268296E3,2.7408115E2,1.2862894E4,9.001892E3,1.3610837E4,5.020474E3,4.2478213E3,1.7869662E2,9.538451E1,2.1334949E3,1.0729398E4,6.8076753E3,2.194216E3,1.1230386E4,2.3804512E3,2.4026338E3,2.6178406E3,2.6816973E3,1.5661241E3,4.3378468E1,5.200604E1,2.0264761E3,1.07018906E2,1.0642705E3,9.665128E3,6.2853364E3,5.2233875E2,2.727908E2,1.9214253E3,1.1329103E3,1.0097476E4,1.776835E3,6.036162E2,1.5941624E3,8.084713E2,5.0514276E2,2.1126978E3,2.9634525E2,2.385352E3,7.475008E2,8.1862335E2,3.18139E1,2.0192139E1,1.0258357E3,1.0006403E3,2.0747292E1,8.6271614E1,1.5119356E2,9.1307697E2,3.9572368E3,5.7078916E3],"tree_param":{"num_deleted":"0","num_feature":"12","num_nodes":"55","size_leaf_vector":"1"}},{"base_weights":[-1.4634131E-2,-6.635519E-1,1.5201905E0,-9.312784E-1,-2.548364E-2,-4.577371E-1,1.5629297E0,-7.312865E-1,-1.0644995E0,5.0431645E-1,-6.6468763E-1,-5.1925253E-2,5.625538E-1,1.0565915E0,1.6648554E0,-9.850438E-1,3.8355935E-2,-1.0676901E0,-6.5663034E-1,-1.4506888E-1,1.3762623E0,-9.341783E-1,-2.1767308E-1,-1.9083697E-2,1.2634E0,1.1307689E0,-3.9793137E-1,7.1315557E-1,1.677259E0,-5.4144975E-2,-4.368806E-2,-3.296451E-2,9.732904E-2,-5.4003995E-2,-5.0281014E-2,-5.341674E-2,1.61228E-2,1.2734075E-2,-4.9996108E-2,4.1600376E-2,7.620372E-2,-2.8491727E-4,-5.2811023E-2,3.5406347E-2,-5.6048524E-2,7.276864E-2,4.227611E-2,3.7761495E-2,7.547632E-2,7.277986E-2,-5.3365417E-2,9.259761E-2,1.1185459E-2,8.4185846E-2,6.81085E-2],"categories":[],"categories_nodes":[],"categories_segments":[],"categories_sizes":[],"default_left":[0,0,0,0,0,0,0,0,0,0,0,0,0,0,0,0,0,0,0,0,0,0,0,0,0,0,0,0,0,0,0,0,0,0,0,0,0,0,0,0,0,0,0,0,0,0,0,0,0,0,0,0,0,0,0],"id":13,"left_children":[1,3,5,7,9,11,13,15,17,19,21,-1,23,25,27,29,31,33,35,37,39,41,43,-1,45,47,49,51,53,-1,-1,-1,-1,-1,-1,-1,-1,-1,-1,-1,-1,-1,-1,-1,-1,-1,-1,-1,-1,-1,-1,-1,-1,-1,-1],"loss_changes":[4.373547E4,5.271871E3,1.1050664E3,5.7678906E2,3.0909524E3,1.6571863E2,6.5434766E2,1.6996821E3,1.47109375E1,2.826627E3,4.9736475E2,0E0,6.862087E1,2.3288184E2,1.2187891E2,6.838428E1,2.8769473E3,6.734375E0,4.44549E1,9.7877545E2,1.6768799E2,2.9175928E2,1.3057434E3,0E0,1.1268845E0,2.8723804E2,1.3358224E2,7.658012E1,1.5238281E1,0E0,0E0,0E0,0E0,0E0,0E0,0E0,0E0,0E0,0E0,0E0,0E0,0E0,0E0,0E0,0E0,0E0,0E0,0E0,0E0,0E0,0E0,0E0,0E0,0E0,0E0],"parents":[2147483647,0,0,1,1,2,2,3,3,4,4,5,5,6,6,7,7,8,8,9,9,10,10,12,12,13,13,14,14,15,15,16,16,17,17,18,18,19,19,20,20,21,21,22,22,24,24,25,25,26,26,27,27,28,28],"right_children":[2,4,6,8,10,12,14,16,18,20,22,-1,24,26,28,30,32,34,36,38,40,42,44,-1,46,48,50,52,54,-1,-1,-1,-1,-1,-1,-1,-1,-1,-1,-1,-1,-1,-1,-1,-1,-1,-1,-1,-1,-1,-1,-1,-1,-1,-1],"split_conditions":[1.2050041E0,7.09077E-1,2.3819766E0,-3.1962976E-1,-3.1962976E-1,7.09077E-1,5.078482E-1,8.548565E-2,1.1414475E0,1.0266277E-1,9.356788E-2,-5.1925253E-2,2.12905E0,3.0741901E0,-7.053473E-1,-5.5935204E-1,4.4297986E-3,7.4644786E-1,2.3819766E0,9.356788E-2,1.1818118E-1,1.8180679E-1,5.6160223E-1,-1.9083697E-2,-4.882092E-1,9.409603E0,1.2166814E1,7.0710677E-1,3.0741901E0,-5.4144975E-2,-4.368806E-2,-3.296451E-2,9.732904E-2,-5.4003995E-2,-5.0281014E-2,-5.341674E-2,1.61228E-2,1.2734075E-2,-4.9996108E-2,4.1600376E-2,7.620372E-2,-2.8491727E-4,-5.2811023E-2,3.5406347E-2,-5.6048524E-2,7.276864E-2,4.227611E-2,3.7761495E-2,7.547632E-2,7.277986E-2,-5.3365417E-2,9.259761E-2,1.1185459E-2,8.4185846E-2,6.81085E-2],"split_indices":[2,4,11,11,11,4,4,2,2,2,7,0,11,2,3,11,3,2,11,7,2,2,6,0,3,11,11,4,2,0,0,0,0,0,0,0,0,0,0,0,0,0,0,0,0,0,0,0,0,0,0,0,0,0,0],"split_type":[0,0,0,0,0,0,0,0,0,0,0,0,0,0,0,0,0,0,0,0,0,0,0,0,0,0,0,0,0,0,0,0,0,0,0,0,0,0,0,0,0,0,0,0,0,0,0,0,0,0,0,0,0,0,0],"sum_hessian":[4.3908617E4,3.086182E4,1.3046796E4,2.173877E4,9.123052E3,2.7529575E2,1.27715E4,8.698014E3,1.3040755E4,4.9882295E3,4.1348223E3,1.7572453E2,9.957122E1,2.1447273E3,1.0626772E4,6.5413633E3,2.1566504E3,1.2935105E4,1.0564972E2,2.8596138E3,2.1286157E3,2.5775828E3,1.5572394E3,4.2504135E1,5.7067085E1,2.041409E3,1.0331818E2,1.3874161E2,1.0488031E4,3.468982E3,3.072381E3,1.5800366E3,5.766137E2,1.074869E4,2.1864155E3,7.4606255E1,3.1043459E1,1.9490223E3,9.1059143E2,4.5818494E2,1.6704309E3,3.0016437E2,2.2774182E3,7.689807E2,7.8825867E2,3.488079E1,2.2186293E1,1.0287294E3,1.01267957E3,2.6590916E1,7.6727264E1,3.972477E1,9.9016846E1,1.0267321E4,2.2070988E2],"tree_param":{"num_deleted":"0","num_feature":"12","num_nodes":"55","size_leaf_vector":"1"}},{"base_weights":[-1.5184854E-2,-6.500705E-1,1.4577324E0,-9.201499E-1,-2.454306E-2,-2.0696004E-1,1.5060408E0,-6.9691914E-1,-1.0442557E0,4.6822685E-1,-6.557482E-1,-8.296577E-1,7.0708317E-1,1.0294255E0,1.6025249E0,-8.345462E-1,3.657027E-1,-1.085307E0,-9.913354E-1,-3.0506507E-1,1.1077003E0,-9.4558704E-1,-3.175083E-2,-5.003208E-2,-2.4643491E-3,-1.7517185E-2,1.1467004E0,9.256897E-2,7.8301585E-1,7.395379E-1,1.6139942E0,-5.086006E-2,-2.8288865E-2,-5.139723E-2,4.3831307E-2,-4.832634E-2,-5.445955E-2,2.6934534E-2,-5.0843567E-2,-2.738443E-2,9.968852E-2,1.02029756E-1,3.917351E-2,-5.3430732E-2,-2.974602E-2,3.4931537E-2,-5.560438E-2,7.78634E-2,-1.23431645E-2,-2.281422E-2,6.1026018E-2,8.837553E-2,1.5250526E-2,8.47018E-2,7.898406E-2],"categories":[],"categories_nodes":[],"categories_segments":[],"categories_sizes":[],"default_left":[0,0,0,0,0,0,0,0,0,0,0,0,0,0,0,0,0,0,0,0,0,0,0,0,0,0,0,0,0,0,0,0,0,0,0,0,0,0,0,0,0,0,0,0,0,0,0,0,0,0,0,0,0,0,0],"id":14,"left_children":[1,3,5,7,9,11,13,15,17,19,21,23,25,27,29,31,33,35,37,39,41,43,45,-1,-1,-1,47,-1,49,51,53,-1,-1,-1,-1,-1,-1,-1,-1,-1,-1,-1,-1,-1,-1,-1,-1,-1,-1,-1,-1,-1,-1,-1,-1],"loss_changes":[3.998245E4,5.047131E3,1.0369297E3,5.7578906E2,2.8039846E3,2.0878177E2,5.709238E2,1.0923486E3,2.5933594E1,2.5042632E3,7.1430725E2,2.8482391E1,7.023934E1,4.2385278E2,9.941211E1,3.2249268E2,6.117941E2,3.3789062E-1,2.3125537E2,1.2801073E3,8.3370996E2,1.1430713E2,9.9300775E2,0E0,0E0,0E0,6.190193E1,0E0,8.8527875E2,6.074379E1,2.1205078E1,0E0,0E0,0E0,0E0,0E0,0E0,0E0,0E0,0E0,0E0,0E0,0E0,0E0,0E0,0E0,0E0,0E0,0E0,0E0,0E0,0E0,0E0,0E0,0E0],"parents":[2147483647,0,0,1,1,2,2,3,3,4,4,5,5,6,6,7,7,8,8,9,9,10,10,11,11,12,12,13,13,14,14,15,15,16,16,17,17,18,18,19,19,20,20,21,21,22,22,26,26,28,28,29,29,30,30],"right_children":[2,4,6,8,10,12,14,16,18,20,22,24,26,28,30,32,34,36,38,40,42,44,46,-1,-1,-1,48,-1,50,52,54,-1,-1,-1,-1,-1,-1,-1,-1,-1,-1,-1,-1,-1,-1,-1,-1,-1,-1,-1,-1,-1,-1,-1,-1],"split_conditions":[1.2050041E0,7.09077E-1,5.4704204E0,6.650641E-1,3.24688E0,7.09077E-1,5.078482E-1,3.995493E-2,1.4439102E0,7.069951E-2,2.3006577E0,1.4981443E0,1.3674526E0,3.7888818E0,-7.053473E-1,8.548565E-2,2.8429048E-2,6.8915766E-1,2.5640815E-2,1.3669528E0,2.1821515E-1,1.4439102E0,3.7888818E0,-5.003208E-2,-2.4643491E-3,-1.7517185E-2,4.865017E0,9.256897E-2,6.4672174E0,7.0710677E-1,3.7888818E0,-5.086006E-2,-2.8288865E-2,-5.139723E-2,4.3831307E-2,-4.832634E-2,-5.445955E-2,2.6934534E-2,-5.0843567E-2,-2.738443E-2,9.968852E-2,1.02029756E-1,3.917351E-2,-5.3430732E-2,-2.974602E-2,3.4931537E-2,-5.560438E-2,7.78634E-2,-1.23431645E-2,-2.281422E-2,6.1026018E-2,8.837553E-2,1.5250526E-2,8.47018E-2,7.898406E-2],"split_indices":[2,4,0,1,0,4,4,5,1,2,1,2,2,1,3,2,2,1,2,1,1,1,1,0,0,0,1,0,0,4,1,0,0,0,0,0,0,0,0,0,0,0,0,0,0,0,0,0,0,0,0,0,0,0,0],"split_type":[0,0,0,0,0,0,0,0,0,0,0,0,0,0,0,0,0,0,0,0,0,0,0,0,0,0,0,0,0,0,0,0,0,0,0,0,0,0,0,0,0,0,0,0,0,0,0,0,0,0,0,0,0,0,0],"sum_hessian":[4.2752254E4,2.987598E4,1.2876273E4,2.0865355E4,9.010624E3,3.6264728E2,1.2513626E4,7.461502E3,1.3403854E4,5.0600576E3,3.950567E3,2.1613538E2,1.465119E2,2.1115315E3,1.0402095E4,6.606722E3,8.5477985E2,7.521117E3,5.8827363E3,2.2905017E3,2.769556E3,2.6963257E3,1.2542411E3,1.7630142E2,3.9833954E1,4.280949E1,1.03702415E2,4.8353546E2,1.627996E3,1.3872255E2,1.0263372E4,3.929089E3,2.677633E3,2.2849928E2,6.262806E2,2.5804645E2,7.263071E3,9.558922E1,5.7871475E3,2.073411E3,2.1709077E2,7.1117896E2,2.058377E3,1.9919512E3,7.043745E2,7.4846875E2,5.057723E2,8.019843E1,2.3503983E1,4.2444894E2,1.2035471E3,3.905147E1,9.967109E1,3.0462031E3,7.217169E3],"tree_param":{"num_deleted":"0","num_feature":"12","num_nodes":"55","size_leaf_vector":"1"}},{"base_weights":[-1.6194357E-2,-6.3763505E-1,1.4040163E0,-9.116688E-1,-2.0528562E-2,8.290975E-1,1.5297831E0,-7.0854574E-1,-1.0496984E0,4.6020555E-1,-6.3302207E-1,-5.642187E-1,1.0306019E0,-5.2937365E-1,1.5407207E0,-9.7056985E-1,4.751675E-2,-1.0530798E0,-6.1686933E-1,-9.841521E-2,1.3016089E0,-9.1137284E-1,-1.861262E-1,-5.085929E-2,-1.1659991E-1,1.1124774E0,-4.7077268E-1,-7.5207897E-3,-5.1519096E-2,1.5494981E0,1.1496727E0,-5.044372E-2,-2.619027E-2,1.2595294E-1,-1.9492557E-2,-5.3384412E-2,-4.89974E-2,-5.2715342E-2,1.7755007E-2,-4.317598E-2,1.5650861E-2,7.000018E-2,3.4227025E-2,7.897639E-4,-5.2451413E-2,3.354555E-2,-5.5543315E-2,2.2963801E-2,-5.802069E-2,4.0249545E-2,6.933649E-2,8.191051E-2,-5.288973E-2,7.383312E-2,8.0418475E-2,7.6516636E-2,7.985776E-3],"categories":[],"categories_nodes":[],"categories_segments":[],"categories_sizes":[],"default_left":[0,0,0,0,0,0,0,0,0,0,0,0,0,0,0,0,0,0,0,0,0,0,0,0,0,0,0,0,0,0,0,0,0,0,0,0,0,0,0,0,0,0,0,0,0,0,0,0,0,0,0,0,0,0,0,0,0],"id":15,"left_children":[1,3,5,7,9,11,13,15,17,19,21,23,25,27,29,31,33,35,37,39,41,43,45,-1,47,49,51,-1,-1,53,55,-1,-1,-1,-1,-1,-1,-1,-1,-1,-1,-1,-1,-1,-1,-1,-1,-1,-1,-1,-1,-1,-1,-1,-1,-1,-1],"loss_changes":[3.6793766E4,4.903658E3,9.1378906E2,5.60666E2,2.6272568E3,6.422826E2,2.3656055E2,1.6116855E3,1.5358398E1,2.3502666E3,4.872273E2,5.787265E1,2.4664136E2,9.777768E0,3.0628906E1,1.0154297E2,2.2671372E3,9.547852E0,4.302837E1,9.469275E2,1.1816577E2,3.0899658E2,1.1978237E3,0E0,9.060336E1,1.563081E2,1.3226807E2,0E0,0E0,3.7103516E1,8.771695E1,0E0,0E0,0E0,0E0,0E0,0E0,0E0,0E0,0E0,0E0,0E0,0E0,0E0,0E0,0E0,0E0,0E0,0E0,0E0,0E0,0E0,0E0,0E0,0E0,0E0,0E0],"parents":[2147483647,0,0,1,1,2,2,3,3,4,4,5,5,6,6,7,7,8,8,9,9,10,10,11,11,12,12,13,13,14,14,15,15,16,16,17,17,18,18,19,19,20,20,21,21,22,22,24,24,25,25,26,26,29,29,30,30],"right_children":[2,4,6,8,10,12,14,16,18,20,22,24,26,28,30,32,34,36,38,40,42,44,46,-1,48,50,52,-1,-1,54,56,-1,-1,-1,-1,-1,-1,-1,-1,-1,-1,-1,-1,-1,-1,-1,-1,-1,-1,-1,-1,-1,-1,-1,-1,-1,-1],"split_conditions":[1.2050041E0,7.09077E-1,5.078482E-1,-3.1962976E-1,-3.1962976E-1,3.0054455E0,2.12905E0,8.548565E-2,1.1414475E0,1.0890607E-1,9.356788E-2,2.3819766E0,3.0741901E0,9.356788E-2,3.0741901E0,3.995493E-2,-4.7513762E-1,7.4644786E-1,2.3819766E0,-5.5935204E-1,-3.4603867E-1,1.8654689E-1,5.6160223E-1,-5.085929E-2,9.356788E-2,9.409603E0,1.1430444E1,-7.5207897E-3,-5.1519096E-2,9.409603E0,1.5058582E1,-5.044372E-2,-2.619027E-2,1.2595294E-1,-1.9492557E-2,-5.3384412E-2,-4.89974E-2,-5.2715342E-2,1.7755007E-2,-4.317598E-2,1.5650861E-2,7.000018E-2,3.4227025E-2,7.897639E-4,-5.2451413E-2,3.354555E-2,-5.5543315E-2,2.2963801E-2,-5.802069E-2,4.0249545E-2,6.933649E-2,8.191051E-2,-5.288973E-2,7.383312E-2,8.0418475E-2,7.6516636E-2,7.985776E-3],"split_indices":[2,4,4,11,11,11,11,2,2,2,7,11,2,7,2,5,11,2,11,11,11,2,6,0,7,11,11,0,0,11,11,0,0,0,0,0,0,0,0,0,0,0,0,0,0,0,0,0,0,0,0,0,0,0,0,0,0],"split_type":[0,0,0,0,0,0,0,0,0,0,0,0,0,0,0,0,0,0,0,0,0,0,0,0,0,0,0,0,0,0,0,0,0,0,0,0,0,0,0,0,0,0,0,0,0,0,0,0,0,0,0,0,0,0,0,0,0],"sum_hessian":[4.1685438E4,2.8998176E4,1.2687261E4,2.0079752E4,8.918424E3,2.28069E3,1.040657E4,8.130653E3,1.1949099E4,4.996472E3,3.9219517E3,2.8739508E2,1.9932948E3,5.4241863E1,1.0352329E4,6.0381436E3,2.0925098E3,1.185248E4,9.6618E1,3.0035442E3,1.9929277E3,2.4147305E3,1.5072214E3,1.410241E2,1.4637099E2,1.8910215E3,1.02273415E2,3.2931347E1,2.1310518E1,1.0118018E4,2.3431107E2,5.5579795E3,4.801638E2,3.1335904E2,1.7791506E3,9.850724E3,2.0017574E3,6.686859E1,2.9749403E1,1.0499895E3,1.9535547E3,1.7159615E3,2.7696622E2,3.1192432E2,2.102806E3,7.8225024E2,7.249711E2,9.47423E1,5.1628685E1,8.9606433E2,9.949571E2,2.1303505E1,8.096991E1,4.54974E3,5.5682773E3,1.6808281E2,6.622826E1],"tree_param":{"num_deleted":"0","num_feature":"12","num_nodes":"57","size_leaf_vector":"1"}},{"base_weights":[-1.8354822E-2,-6.258184E-1,1.3532951E0,-9.029325E-1,-1.8766237E-2,7.8394705E-1,1.4796495E0,-6.814317E-1,-1.0312507E0,4.4337997E-1,-4.8350015E-1,1.6426945E0,5.442679E-1,4.9512354E-1,1.4948555E0,-8.82527E-1,-9.489679E-2,-5.382935E-2,-9.736585E-1,-9.920933E-1,7.4044484E-1,-5.742489E-2,-9.7470444E-1,3.1049807E-2,8.447956E-2,-8.3298975E-1,9.817508E-1,-3.2762265E-1,1.0941813E0,1.1568679E0,1.5070473E0,-5.057314E-2,-2.8798152E-2,3.333753E-2,-4.132332E-2,2.9164335E-2,-5.008697E-2,-4.4377286E-2,-5.59008E-2,2.1037934E-2,6.2113013E-2,-3.6792688E-2,1.8225027E-2,-5.0139405E-2,7.053898E-2,-2.326332E-2,-5.9085228E-2,1.3911215E-2,7.150588E-2,-3.1106917E-3,-3.4707762E-2,2.240913E-2,7.880153E-2,7.5751595E-2,-7.1205676E-2,7.572963E-2,5.8870297E-2],"categories":[],"categories_nodes":[],"categories_segments":[],"categories_sizes":[],"default_left":[0,0,0,0,0,0,0,0,0,0,0,0,0,0,0,0,0,0,0,0,0,0,0,0,0,0,0,0,0,0,0,0,0,0,0,0,0,0,0,0,0,0,0,0,0,0,0,0,0,0,0,0,0,0,0,0,0],"id":16,"left_children":[1,3,5,7,9,11,13,15,17,19,21,23,25,27,29,31,33,-1,35,37,39,41,43,-1,-1,45,47,49,51,53,55,-1,-1,-1,-1,-1,-1,-1,-1,-1,-1,-1,-1,-1,-1,-1,-1,-1,-1,-1,-1,-1,-1,-1,-1,-1,-1],"loss_changes":[3.388082E4,4.7403477E3,8.9439844E2,5.476758E2,1.8980619E3,4.6469238E2,1.5038867E2,8.373325E2,2.8853516E1,1.8906418E3,9.216792E2,2.0427856E1,1.0738892E3,7.936783E1,3.6609375E1,2.0713281E2,1.0135055E3,0E0,2.3832812E2,7.020996E0,5.8724316E2,6.7699E2,1.3971338E2,0E0,0E0,5.318875E1,4.2472278E2,6.1598134E0,2.6431435E1,3.3721927E2,1.9205078E1,0E0,0E0,0E0,0E0,0E0,0E0,0E0,0E0,0E0,0E0,0E0,0E0,0E0,0E0,0E0,0E0,0E0,0E0,0E0,0E0,0E0,0E0,0E0,0E0,0E0,0E0],"parents":[2147483647,0,0,1,1,2,2,3,3,4,4,5,5,6,6,7,7,8,8,9,9,10,10,11,11,12,12,13,13,14,14,15,15,16,16,18,18,19,19,20,20,21,21,22,22,25,25,26,26,27,27,28,28,29,29,30,30],"right_children":[2,4,6,8,10,12,14,16,18,20,22,24,26,28,30,32,34,-1,36,38,40,42,44,-1,-1,46,48,50,52,54,56,-1,-1,-1,-1,-1,-1,-1,-1,-1,-1,-1,-1,-1,-1,-1,-1,-1,-1,-1,-1,-1,-1,-1,-1,-1,-1],"split_conditions":[1.2050041E0,7.09077E-1,5.078482E-1,6.729395E-1,6.729395E-1,3.6162655E0,-7.053473E-1,5.006912E-1,1.4439102E0,2.17963E-2,0E0,1.2631052E0,1.7711701E0,1.9882456E0,1.306586E0,1.15079716E-1,3.3619457E-1,-5.382935E-2,2.481644E-2,-2.5476894E-1,-2.5476894E-1,1.3669528E0,1.1414475E0,3.1049807E-2,8.447956E-2,5.566372E0,5.6160223E-1,9.356788E-2,5.6160223E-1,4.0247555E0,3.0741901E0,-5.057314E-2,-2.8798152E-2,3.333753E-2,-4.132332E-2,2.9164335E-2,-5.008697E-2,-4.4377286E-2,-5.59008E-2,2.1037934E-2,6.2113013E-2,-3.6792688E-2,1.8225027E-2,-5.0139405E-2,7.053898E-2,-2.326332E-2,-5.9085228E-2,1.3911215E-2,7.150588E-2,-3.1106917E-3,-3.4707762E-2,2.240913E-2,7.880153E-2,7.5751595E-2,-7.1205676E-2,7.572963E-2,5.8870297E-2],"split_indices":[2,4,4,1,1,1,3,3,1,2,3,2,2,2,2,2,1,0,2,3,3,1,2,0,0,1,6,7,6,1,2,0,0,0,0,0,0,0,0,0,0,0,0,0,0,0,0,0,0,0,0,0,0,0,0,0,0],"split_type":[0,0,0,0,0,0,0,0,0,0,0,0,0,0,0,0,0,0,0,0,0,0,0,0,0,0,0,0,0,0,0,0,0,0,0,0,0,0,0,0,0,0,0,0,0,0,0,0,0,0,0,0,0,0,0,0,0],"sum_hessian":[4.0658562E4,2.8179945E4,1.2478619E4,1.9346592E4,8.833354E3,2.26972E3,1.0208899E4,7.1026426E3,1.2243948E4,4.428514E3,4.4048394E3,4.922482E2,1.7774718E3,1.5679886E2,1.0052101E4,5.287832E3,1.8148109E3,6.826277E3,5.4176714E3,7.5823206E2,3.670282E3,2.3605378E3,2.0443014E3,2.3320911E1,4.6892728E2,4.2778705E2,1.3496847E3,6.609522E1,9.070364E1,3.5807504E2,9.694025E3,3.7179094E3,1.5699225E3,8.888796E2,9.259313E2,9.4965546E1,5.322706E3,4.2524155E2,3.3299054E2,2.2448513E3,1.4254305E3,9.0502045E2,1.4555175E3,2.0218674E3,2.2433994E1,2.1118869E2,2.1659834E2,5.270514E2,8.226333E2,4.0484043E1,2.5611177E1,4.0843754E1,4.985989E1,3.153355E2,4.2739532E1,9.468591E3,2.254342E2],"tree_param":{"num_deleted":"0","num_feature":"12","num_nodes":"57","size_leaf_vector":"1"}},{"base_weights":[-1.6807672E-2,-6.132265E-1,1.3072599E0,-8.931738E-1,-1.4582021E-2,7.4758345E-1,1.4329903E0,-6.841415E-1,-1.0379555E0,4.3335107E-1,-6.054788E-1,-5.6949663E-1,9.3423563E-1,-5.2295804E-1,1.4433258E0,-9.5180964E-1,5.4354742E-2,-5.3569265E-2,-9.313484E-1,-8.4327143E-1,7.5316447E-1,-8.9852923E-1,-1.6743684E-2,-5.1144846E-2,-1.23018056E-1,8.458971E-2,7.085869E-1,-4.5578185E-2,-1.8019598E-3,5.241491E-1,1.4568232E0,-5.338761E-2,-4.1516613E-2,1.169426E-1,-2.0604743E-2,-3.637356E-2,-5.37677E-2,-4.8545625E-2,7.828096E-3,1.6303457E-2,6.287614E-2,-2.768661E-2,-5.4040935E-2,3.0323932E-2,-5.4962944E-2,1.910972E-2,-5.6978136E-2,-5.9498258E-2,4.827894E-2,-1.4037783E-2,5.567074E-2,7.751559E-2,7.087898E-2],"categories":[],"categories_nodes":[],"categories_segments":[],"categories_sizes":[],"default_left":[0,0,0,0,0,0,0,0,0,0,0,0,0,0,0,0,0,0,0,0,0,0,0,0,0,0,0,0,0,0,0,0,0,0,0,0,0,0,0,0,0,0,0,0,0,0,0,0,0,0,0,0,0],"id":17,"left_children":[1,3,5,7,9,11,13,15,17,19,21,23,25,27,29,31,33,-1,35,37,39,41,43,-1,45,-1,47,-1,-1,49,51,-1,-1,-1,-1,-1,-1,-1,-1,-1,-1,-1,-1,-1,-1,-1,-1,-1,-1,-1,-1,-1,-1],"loss_changes":[3.1268193E4,4.574552E3,8.620449E2,5.606338E2,2.3036035E3,5.5697E2,2.0489062E2,1.5065181E3,3.614746E1,2.0221685E3,6.4702893E2,5.6160927E1,3.3504614E2,9.673774E0,1.2137305E2,7.604297E1,2.164077E3,0E0,7.506909E1,1.27340576E2,8.513313E2,1.5544409E2,8.448196E2,0E0,7.554447E1,0E0,7.488575E2,0E0,0E0,7.132087E1,3.0220703E1,0E0,0E0,0E0,0E0,0E0,0E0,0E0,0E0,0E0,0E0,0E0,0E0,0E0,0E0,0E0,0E0,0E0,0E0,0E0,0E0,0E0,0E0],"parents":[2147483647,0,0,1,1,2,2,3,3,4,4,5,5,6,6,7,7,8,8,9,9,10,10,11,11,12,12,13,13,14,14,15,15,16,16,18,18,19,19,20,20,21,21,22,22,24,24,26,26,29,29,30,30],"right_children":[2,4,6,8,10,12,14,16,18,20,22,24,26,28,30,32,34,-1,36,38,40,42,44,-1,46,-1,48,-1,-1,50,52,-1,-1,-1,-1,-1,-1,-1,-1,-1,-1,-1,-1,-1,-1,-1,-1,-1,-1,-1,-1,-1,-1],"split_conditions":[1.2050041E0,7.09077E-1,5.078482E-1,-3.1962976E-1,-3.1962976E-1,3.0054455E0,2.12905E0,8.548565E-2,2.3006577E0,-5.5935204E-1,2.252281E0,2.3819766E0,3.7888818E0,8.664093E-1,-7.053473E-1,-5.6166625E-1,2.6804122E-1,-5.3569265E-2,3.6162655E0,2.6500314E-2,1.15079716E-1,3.6884618E-1,3.7888818E0,-5.1144846E-2,9.356788E-2,8.458971E-2,1.7711701E0,-4.5578185E-2,-1.8019598E-3,2.034122E0,4.277605E0,-5.338761E-2,-4.1516613E-2,1.169426E-1,-2.0604743E-2,-3.637356E-2,-5.37677E-2,-4.8545625E-2,7.828096E-3,1.6303457E-2,6.287614E-2,-2.768661E-2,-5.4040935E-2,3.0323932E-2,-5.4962944E-2,1.910972E-2,-5.6978136E-2,-5.9498258E-2,4.827894E-2,-1.4037783E-2,5.567074E-2,7.751559E-2,7.087898E-2],"split_indices":[2,4,4,11,11,11,11,2,1,11,1,11,1,4,3,11,1,0,1,2,2,2,1,0,7,0,2,0,0,2,1,0,0,0,0,0,0,0,0,0,0,0,0,0,0,0,0,0,0,0,0,0,0],"split_type":[0,0,0,0,0,0,0,0,0,0,0,0,0,0,0,0,0,0,0,0,0,0,0,0,0,0,0,0,0,0,0,0,0,0,0,0,0,0,0,0,0,0,0,0,0,0,0,0,0,0,0,0,0],"sum_hessian":[3.9591496E4,2.7297117E4,1.2294381E4,1.8598145E4,8.698972E3,2.2585469E3,1.0035834E4,7.6165146E3,1.0981631E4,4.947884E3,3.7510876E3,2.7950256E2,1.9790442E3,5.1975853E1,9.983858E3,5.5903804E3,2.0261346E3,8.342738E3,2.6388923E3,9.9023865E2,3.957645E3,2.503191E3,1.2478967E3,1.368396E2,1.4266296E2,4.5070514E2,1.5283391E3,2.7365007E1,2.4610846E1,1.4617404E2,9.837685E3,2.8502747E3,2.7401055E3,3.423712E2,1.6837635E3,1.098813E3,1.5400795E3,8.786288E2,1.1160991E2,2.1452834E3,1.8123616E3,8.694535E2,1.6337373E3,7.922199E2,4.5567682E2,9.580502E1,4.685794E1,1.8111662E2,1.3472224E3,6.1866436E1,8.430761E1,2.8820806E3,6.9556035E3],"tree_param":{"num_deleted":"0","num_feature":"12","num_nodes":"53","size_leaf_vector":"1"}},{"base_weights":[-1.5769457E-2,-6.016721E-1,1.2693905E0,-2.4113639E-1,-9.218388E-1,5.8543045E-2,1.3218437E0,-7.0974374E-1,5.4166263E-1,-1.0286272E0,-6.2810004E-1,4.7362354E-1,-5.875203E-2,8.156648E-1,1.3663186E0,-4.7648627E-1,-1.0645612E0,1.8474928E0,1.5695673E-1,-1.06884E0,-9.202272E-1,-1.8701196E-1,-5.4083433E-2,-7.752589E-1,8.233742E-1,1.2064268E-1,1.1526439E0,1.3838664E0,7.0542544E-1,-4.692399E-2,-3.8926296E-3,-5.4164518E-2,-3.814822E-2,8.722634E-2,1.6701297E-1,-4.7098104E-2,3.0449925E-2,-4.017165E-2,-5.377366E-2,5.1993836E-2,-5.3369578E-2,-5.579819E-2,7.315414E-4,-4.765147E-2,-2.5239682E-2,-4.0030602E-2,4.8945904E-2,8.776203E-2,-1.1218857E-2,6.593093E-2,-5.0715137E-2,7.604926E-2,6.605566E-2,6.0089167E-2,-1.4583535E-2],"categories":[],"categories_nodes":[],"categories_segments":[],"categories_sizes":[],"default_left":[0,0,0,0,0,0,0,0,0,0,0,0,0,0,0,0,0,0,0,0,0,0,0,0,0,0,0,0,0,0,0,0,0,0,0,0,0,0,0,0,0,0,0,0,0,0,0,0,0,0,0,0,0,0,0],"id":18,"left_children":[1,3,5,7,9,11,13,15,17,19,21,23,-1,25,27,29,31,33,35,37,39,41,-1,43,45,47,49,51,53,-1,-1,-1,-1,-1,-1,-1,-1,-1,-1,-1,-1,-1,-1,-1,-1,-1,-1,-1,-1,-1,-1,-1,-1,-1,-1],"loss_changes":[2.9048262E4,3.0576924E3,7.6639844E2,4.5739805E3,4.3807715E2,2.5886185E2,2.5732812E2,6.4374585E2,2.3439888E3,4.188086E1,7.4879004E2,1.6679721E2,0E0,2.1947394E2,1.20384766E2,8.668484E2,1.4885254E1,1.4904346E2,1.7938069E3,1.0516602E1,8.103164E2,3.5706436E2,0E0,2.3289719E0,7.674875E1,1.7637296E2,2.3049603E2,8.371289E1,1.397299E2,0E0,0E0,0E0,0E0,0E0,0E0,0E0,0E0,0E0,0E0,0E0,0E0,0E0,0E0,0E0,0E0,0E0,0E0,0E0,0E0,0E0,0E0,0E0,0E0,0E0,0E0],"parents":[2147483647,0,0,1,1,2,2,3,3,4,4,5,5,6,6,7,7,8,8,9,9,10,10,11,11,13,13,14,14,15,15,16,16,17,17,18,18,19,19,20,20,21,21,23,23,24,24,25,25,26,26,27,27,28,28],"right_children":[2,4,6,8,10,12,14,16,18,20,22,24,-1,26,28,30,32,34,36,38,40,42,-1,44,46,48,50,52,54,-1,-1,-1,-1,-1,-1,-1,-1,-1,-1,-1,-1,-1,-1,-1,-1,-1,-1,-1,-1,-1,-1,-1,-1,-1,-1],"split_conditions":[1.2050041E0,3.24688E0,5.5376887E0,8.548565E-2,2.3006577E0,9.356788E-2,-7.053473E-1,9.356788E-2,2.6804122E-1,1.4439102E0,3.7888818E0,5.322278E0,-5.875203E-2,6.606217E0,3.0741901E0,-5.5935204E-1,7.069951E-2,8.702536E-1,1.1818118E-1,3.3043194E0,3.9945242E0,3.8936553E0,-5.4083433E-2,-4.882092E-1,-9.645599E-1,3.317792E0,3.0741901E0,3.7888818E0,7.0515523E0,-4.692399E-2,-3.8926296E-3,-5.4164518E-2,-3.814822E-2,8.722634E-2,1.6701297E-1,-4.7098104E-2,3.0449925E-2,-4.017165E-2,-5.377366E-2,5.1993836E-2,-5.3369578E-2,-5.579819E-2,7.315414E-4,-4.765147E-2,-2.5239682E-2,-4.0030602E-2,4.8945904E-2,8.776203E-2,-1.1218857E-2,6.593093E-2,-5.0715137E-2,7.604926E-2,6.605566E-2,6.0089167E-2,-1.4583535E-2],"split_indices":[2,0,0,2,1,7,3,7,1,1,1,0,0,0,2,11,2,3,2,0,0,0,0,3,3,1,2,1,0,0,0,0,0,0,0,0,0,0,0,0,0,0,0,0,0,0,0,0,0,0,0,0,0,0,0],"split_type":[0,0,0,0,0,0,0,0,0,0,0,0,0,0,0,0,0,0,0,0,0,0,0,0,0,0,0,0,0,0,0,0,0,0,0,0,0,0,0,0,0,0,0,0,0,0,0,0,0,0,0,0,0,0,0],"sum_hessian":[3.857422E4,2.6496125E4,1.2078095E4,1.246477E4,1.4031355E4,5.0206464E2,1.157603E4,7.7976714E3,4.6670986E3,1.0285403E4,3.7459521E3,3.7688614E2,1.25178505E2,9.3899603E2,1.0637034E4,4.708435E3,3.089236E3,1.0600393E3,3.6070593E3,7.48601E3,2.7993936E3,1.9010951E3,1.844857E3,8.161044E1,2.952757E2,3.0798148E2,6.310145E2,1.035904E4,2.7799426E2,2.1790632E3,2.5293718E3,2.9021714E3,1.8706476E2,9.9601013E2,6.402922E1,1.0503566E3,2.556703E3,1.9032726E2,7.295682E3,1.9441542E2,2.604978E3,3.378872E2,1.5632079E3,4.508266E1,3.6527786E1,2.480328E1,2.704724E2,5.2504723E1,2.5547676E2,5.8706287E2,4.3951675E1,3.2353027E3,7.1237373E3,1.8566199E2,9.2332275E1],"tree_param":{"num_deleted":"0","num_feature":"12","num_nodes":"55","size_leaf_vector":"1"}},{"base_weights":[-1.386077E-2,-5.876156E-1,1.228791E0,-8.734529E-1,-4.5338433E-4,6.736928E-1,1.3566692E0,-6.5743667E-1,-1.027896E0,4.2273834E-1,-5.6396073E-1,-5.585131E-1,8.459353E-1,-2.1630034E-1,1.3679798E0,-9.313447E-1,4.9453188E-2,-5.3095855E-2,-9.206962E-1,-8.025143E-1,7.151799E-1,-8.4794444E-1,7.912088E-3,-8.992468E-1,-3.3057023E-2,7.9320826E-2,6.233745E-1,-3.788557E-2,1.0347985E-2,5.2428895E-1,1.3810184E0,-4.8798252E-2,-2.1874472E-2,-2.8943313E-2,7.7183485E-2,-3.5947602E-2,-5.3427555E-2,-4.7021784E-2,9.8791225E-3,1.6871117E-2,6.1544694E-2,-2.4172572E-2,-5.322699E-2,2.953125E-2,-5.4447114E-2,-8.178863E-3,-5.050659E-2,4.3199934E-2,-3.0312492E-2,-5.7998773E-2,4.3182876E-2,7.969215E-2,5.5351644E-3,7.352336E-2,6.715865E-2],"categories":[],"categories_nodes":[],"categories_segments":[],"categories_sizes":[],"default_left":[0,0,0,0,0,0,0,0,0,0,0,0,0,0,0,0,0,0,0,0,0,0,0,0,0,0,0,0,0,0,0,0,0,0,0,0,0,0,0,0,0,0,0,0,0,0,0,0,0,0,0,0,0,0,0],"id":19,"left_children":[1,3,5,7,9,11,13,15,17,19,21,23,25,27,29,31,33,-1,35,37,39,41,43,45,47,-1,49,-1,-1,51,53,-1,-1,-1,-1,-1,-1,-1,-1,-1,-1,-1,-1,-1,-1,-1,-1,-1,-1,-1,-1,-1,-1,-1,-1],"loss_changes":[2.6790992E4,4.3141133E3,8.396914E2,5.7463086E2,2.0084055E3,4.7375482E2,1.727461E2,1.3975073E3,3.380371E1,1.7242949E3,5.8711926E2,4.852722E1,3.191183E2,1.6690304E1,1.0293945E2,1.1303955E2,1.8952688E3,0E0,7.0535645E1,1.2864703E2,7.5502124E2,1.8881189E2,7.680714E2,1.25872345E1,5.769911E1,0E0,6.4764813E2,0E0,0E0,6.494566E1,2.6560547E1,0E0,0E0,0E0,0E0,0E0,0E0,0E0,0E0,0E0,0E0,0E0,0E0,0E0,0E0,0E0,0E0,0E0,0E0,0E0,0E0,0E0,0E0,0E0,0E0],"parents":[2147483647,0,0,1,1,2,2,3,3,4,4,5,5,6,6,7,7,8,8,9,9,10,10,11,11,12,12,13,13,14,14,15,15,16,16,18,18,19,19,20,20,21,21,22,22,23,23,24,24,26,26,29,29,30,30],"right_children":[2,4,6,8,10,12,14,16,18,20,22,24,26,28,30,32,34,-1,36,38,40,42,44,46,48,-1,50,-1,-1,52,54,-1,-1,-1,-1,-1,-1,-1,-1,-1,-1,-1,-1,-1,-1,-1,-1,-1,-1,-1,-1,-1,-1,-1,-1],"split_conditions":[1.2050041E0,7.09077E-1,5.078482E-1,3.2176752E0,3.189241E0,3.0054455E0,5.3631682E0,8.548565E-2,2.3006577E0,-5.5935204E-1,2.3006577E0,1.4981443E0,3.7888818E0,5.2479186E0,-7.053473E-1,3.995493E-2,4.4297986E-3,-5.3095855E-2,3.6162655E0,2.6500314E-2,1.1818118E-1,3.6884618E-1,3.7888818E0,2.5686696E0,5.2023597E0,7.9320826E-2,1.7711701E0,-3.788557E-2,1.0347985E-2,7.0710677E-1,4.5626354E0,-4.8798252E-2,-2.1874472E-2,-2.8943313E-2,7.7183485E-2,-3.5947602E-2,-5.3427555E-2,-4.7021784E-2,9.8791225E-3,1.6871117E-2,6.1544694E-2,-2.4172572E-2,-5.322699E-2,2.953125E-2,-5.4447114E-2,-8.178863E-3,-5.050659E-2,4.3199934E-2,-3.0312492E-2,-5.7998773E-2,4.3182876E-2,7.969215E-2,5.5351644E-3,7.352336E-2,6.715865E-2],"split_indices":[2,4,4,0,0,11,0,2,1,11,1,2,1,0,3,5,3,0,1,2,2,2,1,1,1,0,2,0,0,4,1,0,0,0,0,0,0,0,0,0,0,0,0,0,0,0,0,0,0,0,0,0,0,0,0],"split_type":[0,0,0,0,0,0,0,0,0,0,0,0,0,0,0,0,0,0,0,0,0,0,0,0,0,0,0,0,0,0,0,0,0,0,0,0,0,0,0,0,0,0,0,0,0,0,0,0,0,0,0,0,0,0,0],"sum_hessian":[3.7572633E4,2.5705428E4,1.1867205E4,1.7287734E4,8.417693E3,2.225055E3,9.64215E3,7.212925E3,1.007481E4,4.807153E3,3.61054E3,2.7197607E2,1.9530789E3,6.826298E1,9.573888E3,5.1986187E3,2.014306E3,7.6306626E3,2.4441475E3,9.2527936E2,3.8818735E3,2.4124575E3,1.1980826E3,1.6354834E2,1.0842774E2,4.4800854E2,1.5050703E3,2.9776045E1,3.8486935E1,1.4754338E2,9.426344E3,4.7651206E3,4.334983E2,1.418652E3,5.95654E2,1.0400852E3,1.4040621E3,8.1368494E2,1.1159439E2,2.2430962E3,1.6387773E3,9.024913E2,1.5099662E3,7.833176E2,4.1476505E2,2.2661251E1,1.4088708E2,4.1536102E1,6.689164E1,1.7755368E2,1.3275167E3,3.9214993E1,1.08328384E2,2.7760845E3,6.6502593E3],"tree_param":{"num_deleted":"0","num_feature":"12","num_nodes":"55","size_leaf_vector":"1"}},{"base_weights":[-1.6208561E-2,-5.7974124E-1,1.1956122E0,-8.634001E-1,-1.3397249E-2,6.6943526E-1,1.3194273E0,-6.4720976E-1,-1.0198396E0,3.7869498E-1,-5.421152E-1,-4.78444E-1,8.2493055E-1,-5.290611E-1,1.3295506E0,-9.3123364E-1,2.4085741E-2,-5.2874215E-2,-9.03264E-1,-1.2286266E-1,1.0197334E0,-8.359124E-1,2.460958E-2,-5.0240155E-2,-1.661258E-2,7.7054985E-2,6.1167437E-1,-4.4157352E-2,-4.8731E-3,4.9217093E-1,1.3427086E0,-5.280098E-2,-4.0034488E-2,-2.9196708E-2,7.2588444E-2,-3.4506317E-2,-5.315217E-2,-1.4436941E-2,7.932907E-2,7.6413095E-2,3.825304E-2,-2.3656486E-2,-5.2932825E-2,2.8686106E-2,-5.4163408E-2,1.330392E-2,-5.545929E-2,-5.651421E-2,4.1600775E-2,7.777608E-2,5.615411E-3,4.6990067E-2,6.761122E-2],"categories":[],"categories_nodes":[],"categories_segments":[],"categories_sizes":[],"default_left":[0,0,0,0,0,0,0,0,0,0,0,0,0,0,0,0,0,0,0,0,0,0,0,0,0,0,0,0,0,0,0,0,0,0,0,0,0,0,0,0,0,0,0,0,0,0,0,0,0,0,0,0,0],"id":20,"left_children":[1,3,5,7,9,11,13,15,17,19,21,23,25,27,29,31,33,-1,35,37,39,41,43,-1,45,-1,47,-1,-1,49,51,-1,-1,-1,-1,-1,-1,-1,-1,-1,-1,-1,-1,-1,-1,-1,-1,-1,-1,-1,-1,-1,-1],"loss_changes":[2.4995232E4,4.0131895E3,7.541328E2,5.6082227E2,1.7294625E3,3.9683472E2,1.7774707E2,1.3342263E3,3.946875E1,1.5405962E3,5.9198145E2,6.399169E1,2.9553125E2,7.341194E0,1.0080078E2,7.746289E1,1.8086888E3,0E0,7.847327E1,7.625826E2,2.6887744E2,1.8735437E2,7.3971936E2,0E0,4.54718E1,0E0,5.812424E2,0E0,0E0,5.8766464E1,3.1603516E1,0E0,0E0,0E0,0E0,0E0,0E0,0E0,0E0,0E0,0E0,0E0,0E0,0E0,0E0,0E0,0E0,0E0,0E0,0E0,0E0,0E0,0E0],"parents":[2147483647,0,0,1,1,2,2,3,3,4,4,5,5,6,6,7,7,8,8,9,9,10,10,11,11,12,12,13,13,14,14,15,15,16,16,18,18,19,19,20,20,21,21,22,22,24,24,26,26,29,29,30,30],"right_children":[2,4,6,8,10,12,14,16,18,20,22,24,26,28,30,32,34,-1,36,38,40,42,44,-1,46,-1,48,-1,-1,50,52,-1,-1,-1,-1,-1,-1,-1,-1,-1,-1,-1,-1,-1,-1,-1,-1,-1,-1,-1,-1,-1,-1],"split_conditions":[1.2050041E0,7.09077E-1,5.078482E-1,-3.1962976E-1,-3.2915875E-1,3.0054455E0,2.12905E0,8.177174E-2,2.3006577E0,1.0266277E-1,2.3006577E0,2.3819766E0,3.7888818E0,8.664093E-1,-7.053473E-1,-5.6166625E-1,4.4297986E-3,-5.2874215E-2,3.6162655E0,1.3669528E0,3.272987E-1,3.6884618E-1,3.7888818E0,-5.0240155E-2,5.566372E0,7.7054985E-2,1.7711701E0,-4.4157352E-2,-4.8731E-3,7.0710677E-1,2.7993467E0,-5.280098E-2,-4.0034488E-2,-2.9196708E-2,7.2588444E-2,-3.4506317E-2,-5.315217E-2,-1.4436941E-2,7.932907E-2,7.6413095E-2,3.825304E-2,-2.3656486E-2,-5.2932825E-2,2.8686106E-2,-5.4163408E-2,1.330392E-2,-5.545929E-2,-5.651421E-2,4.1600775E-2,7.777608E-2,5.615411E-3,4.6990067E-2,6.761122E-2],"split_indices":[2,4,4,11,11,11,11,2,1,2,1,11,1,4,3,11,3,0,1,1,1,2,1,0,1,0,2,0,0,4,11,0,0,0,0,0,0,0,0,0,0,0,0,0,0,0,0,0,0,0,0,0,0],"split_type":[0,0,0,0,0,0,0,0,0,0,0,0,0,0,0,0,0,0,0,0,0,0,0,0,0,0,0,0,0,0,0,0,0,0,0,0,0,0,0,0,0,0,0,0,0,0,0,0,0,0,0,0,0],"sum_hessian":[3.659799E4,2.4982047E4,1.1615939E4,1.6643871E4,8.338176E3,2.2158975E3,9.400042E3,6.993177E3,9.650694E3,4.787462E3,3.5507144E3,2.6348193E2,1.9524155E3,5.0371937E1,9.34967E3,4.9140303E3,2.0791467E3,7.2795547E3,2.3711396E3,2.6864116E3,2.10105E3,2.338394E3,1.2123202E3,1.2153355E2,1.419484E2,4.4458545E2,1.5078301E3,2.5884907E1,2.448703E1,1.4641725E2,9.203253E3,2.5032158E3,2.4108142E3,1.4587345E3,6.2041223E2,1.0218331E3,1.3493066E3,2.4505745E3,2.3583716E2,6.97107E2,1.4039431E3,8.9279456E2,1.4455995E3,8.11514E2,4.0080618E2,1.1360871E2,2.8339674E1,1.6812778E2,1.3397023E3,3.6562256E1,1.09854996E2,2.1816063E2,8.985093E3],"tree_param":{"num_deleted":"0","num_feature":"12","num_nodes":"53","size_leaf_vector":"1"}},{"base_weights":[-1.55671155E-2,-5.659561E-1,1.1601228E0,-2.144394E-1,-8.9037675E-1,4.2047616E-2,1.2102119E0,-6.837495E-1,4.9871674E-1,-1.0047269E0,-5.875806E-1,-7.433916E-1,5.2949333E-1,1.2358724E0,3.797945E-1,-7.698861E-1,3.1781465E-1,1.7410706E0,1.4634396E-1,-9.047618E-1,-1.0598787E0,-1.6778319E-1,-5.3458292E-2,-5.447337E-1,-5.8444973E-2,9.412511E-1,-8.352621E-1,7.108941E-2,1.1600586E0,1.0355251E0,-6.136675E-1,-4.985589E-2,-2.081143E-2,9.611945E-2,-5.5775005E-2,1.3592057E-1,7.940851E-2,-4.252561E-2,3.3093117E-2,-5.119235E-2,4.8690397E-2,-5.314494E-2,-3.9656978E-2,-5.5625584E-2,1.5238936E-3,-3.8257208E-2,2.4891263E-2,1.9933656E-2,6.649438E-2,-1.8582772E-2,-6.0773175E-2,-6.589208E-2,6.276878E-2,2.363721E-2,7.736658E-2,-5.6015313E-2,1.1603276E-2],"categories":[],"categories_nodes":[],"categories_segments":[],"categories_sizes":[],"default_left":[0,0,0,0,0,0,0,0,0,0,0,0,0,0,0,0,0,0,0,0,0,0,0,0,0,0,0,0,0,0,0,0,0,0,0,0,0,0,0,0,0,0,0,0,0,0,0,0,0,0,0,0,0,0,0,0,0],"id":21,"left_children":[1,3,5,7,9,11,13,15,17,19,21,23,25,27,29,31,33,35,37,39,41,43,-1,45,-1,47,49,-1,51,53,55,-1,-1,-1,-1,-1,-1,-1,-1,-1,-1,-1,-1,-1,-1,-1,-1,-1,-1,-1,-1,-1,-1,-1,-1,-1,-1],"loss_changes":[2.3020846E4,2.76254E3,6.345713E2,3.8945732E3,4.3431836E2,1.878637E2,2.2960547E2,6.061533E2,2.0202476E3,4.7504883E1,6.985591E2,1.37331085E1,1.7203331E2,1.4383105E2,2.1574496E2,5.178545E2,1.2850438E3,1.4162744E2,1.8511783E3,7.329917E2,2.1201172E0,3.474197E2,0E0,3.133862E1,0E0,4.7456024E1,1.082896E1,0E0,1.7729424E3,5.4897064E1,5.7406906E1,0E0,0E0,0E0,0E0,0E0,0E0,0E0,0E0,0E0,0E0,0E0,0E0,0E0,0E0,0E0,0E0,0E0,0E0,0E0,0E0,0E0,0E0,0E0,0E0,0E0,0E0],"parents":[2147483647,0,0,1,1,2,2,3,3,4,4,5,5,6,6,7,7,8,8,9,9,10,10,11,11,12,12,13,13,14,14,15,15,16,16,17,17,18,18,19,19,20,20,21,21,23,23,25,25,26,26,28,28,29,29,30,30],"right_children":[2,4,6,8,10,12,14,16,18,20,22,24,26,28,30,32,34,36,38,40,42,44,-1,46,-1,48,50,-1,52,54,56,-1,-1,-1,-1,-1,-1,-1,-1,-1,-1,-1,-1,-1,-1,-1,-1,-1,-1,-1,-1,-1,-1,-1,-1,-1,-1],"split_conditions":[1.2050041E0,3.2176752E0,5.5376887E0,8.177174E-2,2.3006577E0,1.4186575E0,3.0741901E0,1.3669528E0,2.5088045E-1,3.6884618E-1,3.7888818E0,4.5626354E0,5.2023597E0,3.7888818E0,7.0515523E0,2.3956286E-2,2.5640815E-2,3.995493E-2,1.2112139E-1,1.4439102E0,2.252281E0,3.8936553E0,-5.3458292E-2,1.3674526E0,-5.8444973E-2,1.5345981E0,5.566372E0,7.108941E-2,1.6838493E0,5.6160223E-1,3.995493E-2,-4.985589E-2,-2.081143E-2,9.611945E-2,-5.5775005E-2,1.3592057E-1,7.940851E-2,-4.252561E-2,3.3093117E-2,-5.119235E-2,4.8690397E-2,-5.314494E-2,-3.9656978E-2,-5.5625584E-2,1.5238936E-3,-3.8257208E-2,2.4891263E-2,1.9933656E-2,6.649438E-2,-1.8582772E-2,-6.0773175E-2,-6.589208E-2,6.276878E-2,2.363721E-2,7.736658E-2,-5.6015313E-2,1.1603276E-2],"split_indices":[2,0,0,2,1,2,2,1,1,2,1,1,1,1,0,2,2,5,2,1,1,0,0,2,0,2,1,0,2,6,5,0,0,0,0,0,0,0,0,0,0,0,0,0,0,0,0,0,0,0,0,0,0,0,0,0,0],"split_type":[0,0,0,0,0,0,0,0,0,0,0,0,0,0,0,0,0,0,0,0,0,0,0,0,0,0,0,0,0,0,0,0,0,0,0,0,0,0,0,0,0,0,0,0,0,0,0,0,0,0,0,0,0,0,0,0,0],"sum_hessian":[3.5572566E4,2.4230656E4,1.1341909E4,1.1631999E4,1.2598657E4,4.8690958E2,1.0854999E4,7.0158374E3,4.616162E3,9.140488E3,3.4581687E3,1.8566493E2,3.0124466E2,1.0528094E4,3.269051E2,6.461129E3,5.547085E2,1.01793774E3,3.5982244E3,3.2655024E3,5.874986E3,1.8496049E3,1.608564E3,1.3048196E2,5.5182964E1,2.3218082E2,6.9063835E1,3.0374214E3,7.490673E3,1.9717749E2,1.2972762E2,3.9305938E3,2.5305352E3,2.6156116E2,2.9314734E2,1.3272572E2,8.85212E2,1.2257418E3,2.3724824E3,3.0719438E3,1.9355873E2,5.8014585E3,7.352738E1,3.1966705E2,1.5299377E3,1.0854576E2,2.1936205E1,9.912707E1,1.3305374E2,3.349326E1,3.5570576E1,2.763248E2,7.214348E3,9.620978E1,1.0096771E2,8.109144E1,4.8636173E1],"tree_param":{"num_deleted":"0","num_feature":"12","num_nodes":"57","size_leaf_vector":"1"}},{"base_weights":[-1.5644144E-2,-5.4693973E-1,1.117682E0,-8.4932864E-1,2.5724778E-2,5.4055786E-1,1.2598486E0,-6.315096E-1,-1.0129635E0,3.755174E-1,-4.9720308E-1,6.9738954E-2,3.2685384E-1,3.682726E-1,1.2748339E0,-7.5372463E-1,3.4448883E-1,-5.244505E-2,-8.816797E-1,-7.538227E-1,6.141641E-1,-8.492421E-1,1.660667E-1,-6.8931866E-1,8.591797E-1,-2.504773E-1,1.0436366E0,1.6700599E-1,1.2679164E0,-5.1939573E-2,-2.7064681E-2,-5.1925786E-2,3.9607473E-2,-3.3193566E-2,-5.0733645E-2,-1.6133962E-2,-4.6459522E-2,3.8708832E-2,-1.7002609E-2,-5.2212805E-2,-2.2007747E-2,2.6433045E-2,-5.0203007E-2,-1.2008971E-2,-5.3586867E-2,4.924384E-2,-3.0378431E-2,-1.91119E-2,1.1438169E-3,6.1412442E-2,3.1026766E-2,5.8776468E-2,6.66861E-2],"categories":[],"categories_nodes":[],"categories_segments":[],"categories_sizes":[],"default_left":[0,0,0,0,0,0,0,0,0,0,0,0,0,0,0,0,0,0,0,0,0,0,0,0,0,0,0,0,0,0,0,0,0,0,0,0,0,0,0,0,0,0,0,0,0,0,0,0,0,0,0,0,0],"id":22,"left_children":[1,3,5,7,9,11,13,15,17,19,21,-1,23,25,27,29,31,-1,33,35,37,39,41,43,45,47,49,-1,51,-1,-1,-1,-1,-1,-1,-1,-1,-1,-1,-1,-1,-1,-1,-1,-1,-1,-1,-1,-1,-1,-1,-1,-1],"loss_changes":[2.087144E4,4.0871987E3,9.054404E2,5.4841016E2,1.4923097E3,3.9815906E2,1.16805664E2,7.9183276E2,3.8774414E1,1.31855E3,7.6405566E2,0E0,9.508676E2,6.362478E1,1.1389258E2,3.5508618E2,4.590444E2,0E0,5.3139282E1,6.3302734E1,6.1724744E2,1.6880127E2,4.8231442E2,1.0261734E2,2.1399829E2,3.0618572E0,3.2156982E0,0E0,4.850586E1,0E0,0E0,0E0,0E0,0E0,0E0,0E0,0E0,0E0,0E0,0E0,0E0,0E0,0E0,0E0,0E0,0E0,0E0,0E0,0E0,0E0,0E0,0E0,0E0],"parents":[2147483647,0,0,1,1,2,2,3,3,4,4,5,5,6,6,7,7,8,8,9,9,10,10,12,12,13,13,14,14,15,15,16,16,18,18,19,19,20,20,21,21,22,22,23,23,24,24,25,25,26,26,28,28],"right_children":[2,4,6,8,10,12,14,16,18,20,22,-1,24,26,28,30,32,-1,34,36,38,40,42,44,46,48,50,-1,52,-1,-1,-1,-1,-1,-1,-1,-1,-1,-1,-1,-1,-1,-1,-1,-1,-1,-1,-1,-1,-1,-1,-1,-1],"split_conditions":[2.5743263E0,7.09077E-1,5.078482E-1,-3.1962976E-1,-3.0955625E-1,3.7888818E0,-7.053473E-1,3.995493E-2,2.5145342E0,-5.5935204E-1,2.4621027E0,6.9738954E-2,8.102913E0,9.712053E0,2.4621027E0,-5.484618E-1,-5.6166625E-1,-5.244505E-2,3.6162655E0,1.3442571E-1,5.6160223E-1,9.356788E-2,4.865017E0,1.3703141E1,1.5058582E1,5.6160223E-1,1E0,1.6700599E-1,8.96964E0,-5.1939573E-2,-2.7064681E-2,-5.1925786E-2,3.9607473E-2,-3.3193566E-2,-5.0733645E-2,-1.6133962E-2,-4.6459522E-2,3.8708832E-2,-1.7002609E-2,-5.2212805E-2,-2.2007747E-2,2.6433045E-2,-5.0203007E-2,-1.2008971E-2,-5.3586867E-2,4.924384E-2,-3.0378431E-2,-1.91119E-2,1.1438169E-3,6.1412442E-2,3.1026766E-2,5.8776468E-2,6.66861E-2],"split_indices":[11,4,4,11,11,1,3,5,1,11,1,0,11,11,1,11,11,0,1,1,6,7,1,1,11,6,9,0,11,0,0,0,0,0,0,0,0,0,0,0,0,0,0,0,0,0,0,0,0,0,0,0,0],"split_type":[0,0,0,0,0,0,0,0,0,0,0,0,0,0,0,0,0,0,0,0,0,0,0,0,0,0,0,0,0,0,0,0,0,0,0,0,0,0,0,0,0,0,0,0,0,0,0,0,0,0,0,0,0],"sum_hessian":[3.4659055E4,2.3597965E4,1.106109E4,1.5443244E4,8.15472E3,2.1887996E3,8.87229E3,6.6302744E3,8.81297E3,4.8871606E3,3.2675596E3,4.353237E2,1.753476E3,1.4805547E2,8.724235E3,5.893282E3,7.369921E2,6.905014E3,1.9079556E3,8.5145154E2,4.035709E3,2.1347214E3,1.1328381E3,6.022651E2,1.1512108E3,7.753652E1,7.0518936E1,2.5665092E1,8.69857E3,2.5120981E3,3.3811843E3,1.7930128E2,5.576908E2,7.2929767E2,1.1786578E3,2.4865694E2,6.027946E2,3.4569197E3,5.787893E2,1.4426671E3,6.9205444E2,8.66007E2,2.668311E2,2.790697E2,3.231954E2,1.061261E3,8.9949814E1,5.3014973E1,2.4521553E1,4.562405E1,2.4894884E1,3.6373147E3,5.061255E3],"tree_param":{"num_deleted":"0","num_feature":"12","num_nodes":"53","size_leaf_vector":"1"}},{"base_weights":[-1.36963455E-2,-5.417217E-1,1.1057208E0,-2.056213E-1,-8.7338376E-1,4.040396E-2,1.1536988E0,-6.828376E-1,4.1213295E-1,-9.556848E-1,-5.963005E-1,-7.22986E-1,4.95298E-1,6.7632157E-1,1.1995968E0,-9.717841E-1,-4.2929637E-1,1.8139927E0,1.4714384E-1,-8.214822E-1,-1.046047E0,-5.2759517E-2,-3.8469929E-1,-8.387564E-1,-1.24606425E-2,-3.957368E-2,6.207033E-1,1.0073038E-1,1.1503404E0,1.2192134E0,5.150188E-1,-5.0831955E-2,-4.004606E-2,-6.5260506E-3,-4.626409E-2,1.136704E-1,7.948566E-2,-4.711441E-2,3.1005835E-2,-5.206841E-2,-7.965277E-3,-5.292476E-2,-4.6169207E-2,9.616567E-3,-4.1985765E-2,-4.9164698E-2,-1.791956E-2,3.5905745E-2,-2.206991E-2,1.0988675E-2,-5.332168E-2,-4.1479256E-2,6.604704E-2,6.1852705E-2,3.8506057E-2,4.9662467E-2,-2.0549772E-2],"categories":[],"categories_nodes":[],"categories_segments":[],"categories_sizes":[],"default_left":[0,0,0,0,0,0,0,0,0,0,0,0,0,0,0,0,0,0,0,0,0,0,0,0,0,0,0,0,0,0,0,0,0,0,0,0,0,0,0,0,0,0,0,0,0,0,0,0,0,0,0,0,0,0,0,0,0],"id":23,"left_children":[1,3,5,7,9,11,13,15,17,19,21,23,25,27,29,31,33,35,37,39,41,-1,43,45,-1,-1,47,49,51,53,55,-1,-1,-1,-1,-1,-1,-1,-1,-1,-1,-1,-1,-1,-1,-1,-1,-1,-1,-1,-1,-1,-1,-1,-1,-1,-1],"loss_changes":[1.9931082E4,2.553224E3,5.516963E2,3.3566077E3,2.6104297E2,1.6321577E2,2.2402148E2,4.690525E2,1.8417764E3,1.05104004E2,2.5553589E2,8.650276E0,4.850434E1,2.4813559E2,1.24521484E2,2.0452393E1,5.0690686E2,7.207202E1,2.152618E3,5.213552E2,5.147949E0,0E0,4.7740042E2,8.285164E0,0E0,0E0,2.8737724E1,5.768006E1,1.7125269E2,7.052832E1,1.1929432E2,0E0,0E0,0E0,0E0,0E0,0E0,0E0,0E0,0E0,0E0,0E0,0E0,0E0,0E0,0E0,0E0,0E0,0E0,0E0,0E0,0E0,0E0,0E0,0E0,0E0,0E0],"parents":[2147483647,0,0,1,1,2,2,3,3,4,4,5,5,6,6,7,7,8,8,9,9,10,10,11,11,12,12,13,13,14,14,15,15,16,16,17,17,18,18,19,19,20,20,22,22,23,23,26,26,27,27,28,28,29,29,30,30],"right_children":[2,4,6,8,10,12,14,16,18,20,22,24,26,28,30,32,34,36,38,40,42,-1,44,46,-1,-1,48,50,52,54,56,-1,-1,-1,-1,-1,-1,-1,-1,-1,-1,-1,-1,-1,-1,-1,-1,-1,-1,-1,-1,-1,-1,-1,-1,-1,-1],"split_conditions":[1.2050041E0,3.24688E0,5.5376887E0,7.4371025E-2,7.1803063E-1,1.4186575E0,-7.053473E-1,-5.6166625E-1,2.4874036E0,3.9945242E0,4.641213E0,1.3674526E0,-9.645599E-1,5.6160223E-1,3.0741901E0,1.780667E-2,3.4977388E-2,2.2731562E0,1.1818118E-1,3.8805323E0,6.6703534E-1,-5.2759517E-2,4.941142E0,3.995493E-2,-1.24606425E-2,-3.957368E-2,-1.6292943E-2,6.973259E0,1.7711701E0,8.660254E-1,7.0515523E0,-5.0831955E-2,-4.004606E-2,-6.5260506E-3,-4.626409E-2,1.136704E-1,7.948566E-2,-4.711441E-2,3.1005835E-2,-5.206841E-2,-7.965277E-3,-5.292476E-2,-4.6169207E-2,9.616567E-3,-4.1985765E-2,-4.9164698E-2,-1.791956E-2,3.5905745E-2,-2.206991E-2,1.0988675E-2,-5.332168E-2,-4.1479256E-2,6.604704E-2,6.1852705E-2,3.8506057E-2,4.9662467E-2,-2.0549772E-2],"split_indices":[2,0,0,2,2,2,3,11,0,0,0,2,3,6,2,2,2,0,2,0,2,0,0,5,0,0,3,0,2,3,0,0,0,0,0,0,0,0,0,0,0,0,0,0,0,0,0,0,0,0,0,0,0,0,0,0,0],"split_type":[0,0,0,0,0,0,0,0,0,0,0,0,0,0,0,0,0,0,0,0,0,0,0,0,0,0,0,0,0,0,0,0,0,0,0,0,0,0,0,0,0,0,0,0,0,0,0,0,0,0,0,0,0,0,0,0,0],"sum_hessian":[3.371618E4,2.291074E4,1.0805441E4,1.1381589E4,1.1529151E4,4.6627362E2,1.0339168E4,6.4215376E3,4.960051E3,8.883742E3,2.6454092E3,1.7325099E2,2.9302264E2,9.1059314E2,9.428574E3,2.9976497E3,3.4238882E3,7.86371E2,4.17368E3,3.585059E3,5.298683E3,8.316063E2,1.8138027E3,1.3714288E2,3.6108112E1,2.4723845E1,2.682988E2,4.1280835E2,4.977848E2,9.163695E3,2.648787E2,2.3641777E3,6.334718E2,2.1389475E3,1.2849407E3,2.5123582E2,5.3513513E2,1.2625402E3,2.91114E3,2.689927E3,8.95132E2,4.7929453E3,5.0573816E2,7.997067E2,1.014096E3,1.0301252E2,3.413036E1,2.4678333E2,2.1515457E1,3.7646335E2,3.6345016E1,3.8643715E1,4.5914105E2,8.809119E3,3.5457675E2,1.7493175E2,8.994696E1],"tree_param":{"num_deleted":"0","num_feature":"12","num_nodes":"57","size_leaf_vector":"1"}},{"base_weights":[-1.6190728E-2,-5.302241E-1,1.0732719E0,-1.9055147E-1,-8.632476E-1,5.7602793E-2,1.1204607E0,-6.659209E-1,3.9739728E-1,-9.90339E-1,-5.4476273E-1,4.4610193E-1,-5.828893E-2,6.501057E-1,1.1668854E0,-7.705794E-1,4.4345582E-1,1.7511773E0,5.0820354E-2,-8.813075E-1,-1.0508913E0,-1.3617079E-1,-5.3015765E-2,-6.4959586E-1,7.1706504E-1,9.33274E-2,1.108129E0,1.1869841E0,4.5072487E-1,-4.9245894E-2,-2.1664605E-2,9.1167E-2,-5.508567E-2,1.12524666E-1,7.758016E-2,-5.0456263E-2,2.5589699E-2,-5.073467E-2,4.9589034E-2,-5.275271E-2,-4.353554E-2,-5.502199E-2,2.6608442E-3,-4.6689138E-2,-1.371257E-2,4.4081192E-2,-1.9713124E-2,7.685611E-2,-6.0554612E-3,-5.955985E-2,6.2245954E-2,6.719038E-2,5.5839904E-2,4.7860537E-2,-2.3252012E-2],"categories":[],"categories_nodes":[],"categories_segments":[],"categories_sizes":[],"default_left":[0,0,0,0,0,0,0,0,0,0,0,0,0,0,0,0,0,0,0,0,0,0,0,0,0,0,0,0,0,0,0,0,0,0,0,0,0,0,0,0,0,0,0,0,0,0,0,0,0,0,0,0,0,0,0],"id":24,"left_children":[1,3,5,7,9,11,13,15,17,19,21,23,-1,25,27,29,31,33,35,37,39,41,-1,43,45,47,49,51,53,-1,-1,-1,-1,-1,-1,-1,-1,-1,-1,-1,-1,-1,-1,-1,-1,-1,-1,-1,-1,-1,-1,-1,-1,-1,-1],"loss_changes":[1.8399277E4,2.5243027E3,5.0406836E2,3.0903184E3,4.5434766E2,2.2415062E2,2.1733008E2,7.1067896E2,2.318044E3,5.034375E1,6.774616E2,1.0743612E2,0E0,2.3114832E2,1.2990625E2,4.0239746E2,1.129942E3,9.1476074E1,1.9247769E3,7.2420264E2,1.0737305E0,3.2923358E2,0E0,6.540966E0,5.3759888E1,1.2900925E2,1.5974097E2,9.377832E1,1.1888016E2,0E0,0E0,0E0,0E0,0E0,0E0,0E0,0E0,0E0,0E0,0E0,0E0,0E0,0E0,0E0,0E0,0E0,0E0,0E0,0E0,0E0,0E0,0E0,0E0,0E0,0E0],"parents":[2147483647,0,0,1,1,2,2,3,3,4,4,5,5,6,6,7,7,8,8,9,9,10,10,11,11,13,13,14,14,15,15,16,16,17,17,18,18,19,19,20,20,21,21,23,23,24,24,25,25,26,26,27,27,28,28],"right_children":[2,4,6,8,10,12,14,16,18,20,22,24,-1,26,28,30,32,34,36,38,40,42,-1,44,46,48,50,52,54,-1,-1,-1,-1,-1,-1,-1,-1,-1,-1,-1,-1,-1,-1,-1,-1,-1,-1,-1,-1,-1,-1,-1,-1,-1,-1],"split_conditions":[1.2050041E0,3.2176752E0,5.5376887E0,7.069951E-2,2.3006577E0,9.356788E-2,-7.053473E-1,1.3669528E0,2.1821515E-1,3.6884618E-1,3.7888818E0,5.322278E0,-5.828893E-2,5.6160223E-1,3.0741901E0,2.3125937E-2,2.5640815E-2,2.2731562E0,1.15079716E-1,1.4439102E0,2.2063394E0,3.8936553E0,-5.3015765E-2,-4.882092E-1,5.2023597E0,3.317792E0,7.6534953E0,3.7888818E0,7.0515523E0,-4.9245894E-2,-2.1664605E-2,9.1167E-2,-5.508567E-2,1.12524666E-1,7.758016E-2,-5.0456263E-2,2.5589699E-2,-5.073467E-2,4.9589034E-2,-5.275271E-2,-4.353554E-2,-5.502199E-2,2.6608442E-3,-4.6689138E-2,-1.371257E-2,4.4081192E-2,-1.9713124E-2,7.685611E-2,-6.0554612E-3,-5.955985E-2,6.2245954E-2,6.719038E-2,5.5839904E-2,4.7860537E-2,-2.3252012E-2],"split_indices":[2,0,0,2,1,7,3,1,1,2,1,0,0,6,2,2,2,0,2,1,1,0,0,3,1,1,1,1,0,0,0,0,0,0,0,0,0,0,0,0,0,0,0,0,0,0,0,0,0,0,0,0,0,0,0],"split_type":[0,0,0,0,0,0,0,0,0,0,0,0,0,0,0,0,0,0,0,0,0,0,0,0,0,0,0,0,0,0,0,0,0,0,0,0,0,0,0,0,0,0,0,0,0,0,0,0,0,0,0,0,0,0,0],"sum_hessian":[3.285112E4,2.2321035E4,1.0530089E4,1.1052503E4,1.1268531E4,4.681841E2,1.0061904E4,6.11167E3,4.9408335E3,8.0502773E3,3.218254E3,3.5661594E2,1.1156817E2,9.0756866E2,9.154336E3,5.5857705E3,5.2589954E2,1.0051241E3,3.9357095E3,2.888523E3,5.1617544E3,1.797319E3,1.4209349E3,6.978505E1,2.868309E2,4.1120383E2,4.9636487E2,8.90248E3,2.5185547E2,3.4121216E3,2.1736487E3,2.777889E2,2.4811063E2,2.804374E2,7.2468665E2,1.19182E3,2.7438894E3,2.6976052E3,1.9091771E2,5.0329883E3,1.2876587E2,2.9390717E2,1.5034119E3,3.7263657E1,3.252139E1,2.5058852E2,3.624237E1,5.1881653E1,3.5932217E2,2.6800436E1,4.6956442E2,2.739012E3,6.1634683E3,1.6245906E2,8.93964E1],"tree_param":{"num_deleted":"0","num_feature":"12","num_nodes":"55","size_leaf_vector":"1"}},{"base_weights":[-1.6351746E-2,-5.13648E-1,1.0346525E0,-1.833505E-1,-8.320863E-1,4.42587E-1,1.0986764E0,-9.2863643E-1,1.0493961E-1,-9.6637225E-1,-4.5294997E-1,-1.933463E-1,8.965893E-1,1.3337847E0,1.0018338E0,-9.982981E-1,-7.16345E-1,-6.561938E-1,3.4955138E-1,-5.300167E-1,-9.8837227E-1,-1.5383443E-1,-1.0321374E0,7.459813E-2,-4.3324432E-1,1.0397604E0,-4.8632923E-1,9.583997E-2,6.615574E-2,8.977774E-2,1.1892132E0,-4.7811326E-2,-5.263723E-2,-1.8476434E-3,-4.560469E-2,-4.291137E-2,-3.7070625E-3,3.4023624E-2,-1.4269265E-2,-1.9472461E-2,-5.9980866E-2,-5.2572306E-2,-4.2052116E-2,-5.430122E-2,1.6282144E-3,-5.2812546E-2,-2.977626E-2,-4.0709384E-2,1.5131066E-2,3.3848718E-2,6.0955435E-2,-4.653999E-2,2.0541754E-3,3.5614144E-2,-5.3941E-2,6.0822207E-2,-1.8487193E-2],"categories":[],"categories_nodes":[],"categories_segments":[],"categories_sizes":[],"default_left":[0,0,0,0,0,0,0,0,0,0,0,0,0,0,0,0,0,0,0,0,0,0,0,0,0,0,0,0,0,0,0,0,0,0,0,0,0,0,0,0,0,0,0,0,0,0,0,0,0,0,0,0,0,0,0,0,0],"id":25,"left_children":[1,3,5,7,9,11,13,15,17,19,21,23,25,27,29,31,33,35,37,39,41,43,45,-1,47,49,51,-1,-1,53,55,-1,-1,-1,-1,-1,-1,-1,-1,-1,-1,-1,-1,-1,-1,-1,-1,-1,-1,-1,-1,-1,-1,-1,-1,-1,-1],"loss_changes":[1.6703854E4,2.2810488E3,3.8735938E2,2.2893909E3,5.607158E2,2.910864E2,2.0701953E2,4.166284E1,1.4306641E3,7.646045E1,5.0035657E2,1.7062717E2,1.1763995E2,1.0067871E1,1.1217515E3,2.092041E0,9.828659E1,2.1915613E2,1.22258E3,3.5612923E1,6.938086E1,3.3264264E2,8.280762E0,0E0,1.0435511E2,3.2112732E1,1.3687768E1,0E0,0E0,8.176693E2,2.3262646E2,0E0,0E0,0E0,0E0,0E0,0E0,0E0,0E0,0E0,0E0,0E0,0E0,0E0,0E0,0E0,0E0,0E0,0E0,0E0,0E0,0E0,0E0,0E0,0E0,0E0,0E0],"parents":[2147483647,0,0,1,1,2,2,3,3,4,4,5,5,6,6,7,7,8,8,9,9,10,10,11,11,12,12,13,13,14,14,15,15,16,16,17,17,18,18,19,19,20,20,21,21,22,22,24,24,25,25,26,26,29,29,30,30],"right_children":[2,4,6,8,10,12,14,16,18,20,22,24,26,28,30,32,34,36,38,40,42,44,46,-1,48,50,52,-1,-1,54,56,-1,-1,-1,-1,-1,-1,-1,-1,-1,-1,-1,-1,-1,-1,-1,-1,-1,-1,-1,-1,-1,-1,-1,-1,-1,-1],"split_conditions":[5.4704204E0,3.189241E0,-7.053473E-1,-5.570379E-1,2.4621027E0,6.606217E0,3.7888818E0,3.995493E-2,-7.053473E-1,3.275634E0,4.865017E0,3.317792E0,7.0515523E0,2.4621027E0,6.4672174E0,9.356788E-2,1.2805623E-1,-3.9410102E-1,9.356788E-2,5.6160223E-1,9.356788E-2,3.8936553E0,5.409098E0,7.459813E-2,5.6160223E-1,5.6160223E-1,5.6160223E-1,9.583997E-2,6.615574E-2,